nelements=1
elements: Al

lmax=4
embedding-function: FinnisSinclairShiftedScaled
4 FS parameters:  1.000000 1.000000 1.000000 0.500000
core energy-cutoff parameters: 100000.000000000000000000 250.000000000000000000

radbasename=ChebExpCos
nradbase=12
nradmax=7
cutoffmax=8.700000
deltaSplineBins=0.001
core repulsion parameters:100.000000000000000000 1.000000000000000000
radparameter= 5.250000000000000000
cutoff= 8.699999999999999289
dcut= 0.010000000000000000
crad= 1.000000000000000000 1.000000000000000000 1.000000000000000000 1.000000000000000000 1.000000000000000000
 0.000000000000000000 0.000000000000000000 0.000000000000000000 0.000000000000000000 0.000000000000000000
 0.000000000000000000 0.000000000000000000 0.000000000000000000 0.000000000000000000 0.000000000000000000
 0.000000000000000000 0.000000000000000000 0.000000000000000000 0.000000000000000000 0.000000000000000000
 0.000000000000000000 0.000000000000000000 0.000000000000000000 0.000000000000000000 0.000000000000000000
 0.000000000000000000 0.000000000000000000 0.000000000000000000 0.000000000000000000 0.000000000000000000
 0.000000000000000000 0.000000000000000000 0.000000000000000000 0.000000000000000000 0.000000000000000000
 0.000000000000000000 0.000000000000000000 0.000000000000000000 0.000000000000000000 0.000000000000000000
 1.000000000000000000 1.000000000000000000 1.000000000000000000 1.000000000000000000 1.000000000000000000
 0.000000000000000000 0.000000000000000000 0.000000000000000000 0.000000000000000000 0.000000000000000000
 0.000000000000000000 0.000000000000000000 0.000000000000000000 0.000000000000000000 0.000000000000000000
 0.000000000000000000 0.000000000000000000 0.000000000000000000 0.000000000000000000 0.000000000000000000
 0.000000000000000000 0.000000000000000000 0.000000000000000000 0.000000000000000000 0.000000000000000000
 0.000000000000000000 0.000000000000000000 0.000000000000000000 0.000000000000000000 0.000000000000000000
 0.000000000000000000 0.000000000000000000 0.000000000000000000 0.000000000000000000 0.000000000000000000
 0.000000000000000000 0.000000000000000000 0.000000000000000000 0.000000000000000000 0.000000000000000000
 1.000000000000000000 1.000000000000000000 1.000000000000000000 1.000000000000000000 1.000000000000000000
 0.000000000000000000 0.000000000000000000 0.000000000000000000 0.000000000000000000 0.000000000000000000
 0.000000000000000000 0.000000000000000000 0.000000000000000000 0.000000000000000000 0.000000000000000000
 0.000000000000000000 0.000000000000000000 0.000000000000000000 0.000000000000000000 0.000000000000000000
 0.000000000000000000 0.000000000000000000 0.000000000000000000 0.000000000000000000 0.000000000000000000
 0.000000000000000000 0.000000000000000000 0.000000000000000000 0.000000000000000000 0.000000000000000000
 0.000000000000000000 0.000000000000000000 0.000000000000000000 0.000000000000000000 0.000000000000000000
 0.000000000000000000 0.000000000000000000 0.000000000000000000 0.000000000000000000 0.000000000000000000
 1.000000000000000000 1.000000000000000000 1.000000000000000000 1.000000000000000000 1.000000000000000000
 0.000000000000000000 0.000000000000000000 0.000000000000000000 0.000000000000000000 0.000000000000000000
 0.000000000000000000 0.000000000000000000 0.000000000000000000 0.000000000000000000 0.000000000000000000
 0.000000000000000000 0.000000000000000000 0.000000000000000000 0.000000000000000000 0.000000000000000000
 0.000000000000000000 0.000000000000000000 0.000000000000000000 0.000000000000000000 0.000000000000000000
 0.000000000000000000 0.000000000000000000 0.000000000000000000 0.000000000000000000 0.000000000000000000
 0.000000000000000000 0.000000000000000000 0.000000000000000000 0.000000000000000000 0.000000000000000000
 0.000000000000000000 0.000000000000000000 0.000000000000000000 0.000000000000000000 0.000000000000000000
 1.000000000000000000 1.000000000000000000 1.000000000000000000 1.000000000000000000 1.000000000000000000
 0.000000000000000000 0.000000000000000000 0.000000000000000000 0.000000000000000000 0.000000000000000000
 0.000000000000000000 0.000000000000000000 0.000000000000000000 0.000000000000000000 0.000000000000000000
 0.000000000000000000 0.000000000000000000 0.000000000000000000 0.000000000000000000 0.000000000000000000
 0.000000000000000000 0.000000000000000000 0.000000000000000000 0.000000000000000000 0.000000000000000000
 0.000000000000000000 0.000000000000000000 0.000000000000000000 0.000000000000000000 0.000000000000000000
 0.000000000000000000 0.000000000000000000 0.000000000000000000 0.000000000000000000 0.000000000000000000
 0.000000000000000000 0.000000000000000000 0.000000000000000000 0.000000000000000000 0.000000000000000000
 1.000000000000000000 1.000000000000000000 1.000000000000000000 1.000000000000000000 1.000000000000000000
 0.000000000000000000 0.000000000000000000 0.000000000000000000 0.000000000000000000 0.000000000000000000
 0.000000000000000000 0.000000000000000000 0.000000000000000000 0.000000000000000000 0.000000000000000000
 0.000000000000000000 0.000000000000000000 0.000000000000000000 0.000000000000000000 0.000000000000000000
 0.000000000000000000 0.000000000000000000 0.000000000000000000 0.000000000000000000 0.000000000000000000
 0.000000000000000000 0.000000000000000000 0.000000000000000000 0.000000000000000000 0.000000000000000000
 0.000000000000000000 0.000000000000000000 0.000000000000000000 0.000000000000000000 0.000000000000000000
 0.000000000000000000 0.000000000000000000 0.000000000000000000 0.000000000000000000 0.000000000000000000
 1.000000000000000000 1.000000000000000000 1.000000000000000000 1.000000000000000000 1.000000000000000000
 0.000000000000000000 0.000000000000000000 0.000000000000000000 0.000000000000000000 0.000000000000000000
 0.000000000000000000 0.000000000000000000 0.000000000000000000 0.000000000000000000 0.000000000000000000
 0.000000000000000000 0.000000000000000000 0.000000000000000000 0.000000000000000000 0.000000000000000000
 0.000000000000000000 0.000000000000000000 0.000000000000000000 0.000000000000000000 0.000000000000000000
 0.000000000000000000 0.000000000000000000 0.000000000000000000 0.000000000000000000 0.000000000000000000
 0.000000000000000000 0.000000000000000000 0.000000000000000000 0.000000000000000000 0.000000000000000000
 0.000000000000000000 0.000000000000000000 0.000000000000000000 0.000000000000000000 0.000000000000000000
 0.000000000000000000 0.000000000000000000 0.000000000000000000 0.000000000000000000 0.000000000000000000
 0.000000000000000000 0.000000000000000000 0.000000000000000000 0.000000000000000000 0.000000000000000000
 0.000000000000000000 0.000000000000000000 0.000000000000000000 0.000000000000000000 0.000000000000000000
 0.000000000000000000 0.000000000000000000 0.000000000000000000 0.000000000000000000 0.000000000000000000
 0.000000000000000000 0.000000000000000000 0.000000000000000000 0.000000000000000000 0.000000000000000000
 0.000000000000000000 0.000000000000000000 0.000000000000000000 0.000000000000000000 0.000000000000000000
 0.000000000000000000 0.000000000000000000 0.000000000000000000 0.000000000000000000 0.000000000000000000
 0.000000000000000000 0.000000000000000000 0.000000000000000000 0.000000000000000000 0.000000000000000000
 0.000000000000000000 0.000000000000000000 0.000000000000000000 0.000000000000000000 0.000000000000000000
 0.000000000000000000 0.000000000000000000 0.000000000000000000 0.000000000000000000 0.000000000000000000
 0.000000000000000000 0.000000000000000000 0.000000000000000000 0.000000000000000000 0.000000000000000000
 0.000000000000000000 0.000000000000000000 0.000000000000000000 0.000000000000000000 0.000000000000000000
 0.000000000000000000 0.000000000000000000 0.000000000000000000 0.000000000000000000 0.000000000000000000
 0.000000000000000000 0.000000000000000000 0.000000000000000000 0.000000000000000000 0.000000000000000000
 0.000000000000000000 0.000000000000000000 0.000000000000000000 0.000000000000000000 0.000000000000000000
 0.000000000000000000 0.000000000000000000 0.000000000000000000 0.000000000000000000 0.000000000000000000
 0.000000000000000000 0.000000000000000000 0.000000000000000000 0.000000000000000000 0.000000000000000000
 0.000000000000000000 0.000000000000000000 0.000000000000000000 0.000000000000000000 0.000000000000000000
 0.000000000000000000 0.000000000000000000 0.000000000000000000 0.000000000000000000 0.000000000000000000
 0.000000000000000000 0.000000000000000000 0.000000000000000000 0.000000000000000000 0.000000000000000000
 0.000000000000000000 0.000000000000000000 0.000000000000000000 0.000000000000000000 0.000000000000000000
 0.000000000000000000 0.000000000000000000 0.000000000000000000 0.000000000000000000 0.000000000000000000
 0.000000000000000000 0.000000000000000000 0.000000000000000000 0.000000000000000000 0.000000000000000000
 0.000000000000000000 0.000000000000000000 0.000000000000000000 0.000000000000000000 0.000000000000000000
 0.000000000000000000 0.000000000000000000 0.000000000000000000 0.000000000000000000 0.000000000000000000
 0.000000000000000000 0.000000000000000000 0.000000000000000000 0.000000000000000000 0.000000000000000000
 0.000000000000000000 0.000000000000000000 0.000000000000000000 0.000000000000000000 0.000000000000000000
 0.000000000000000000 0.000000000000000000 0.000000000000000000 0.000000000000000000 0.000000000000000000

rankmax=3
ndensitymax=2

num_c_tilde_max=160
num_ms_combinations_max=10
total_basis_size_rank1: 12 
ctilde_basis_func: rank=1 ndens=2 mu0=0 mu=( 0 )
n=( 1 )
l=( 0 )
num_ms=1
< 0 >:  4.142127460908046288  -9.440391226729362373 
ctilde_basis_func: rank=1 ndens=2 mu0=0 mu=( 0 )
n=( 2 )
l=( 0 )
num_ms=1
< 0 >:  -1137.793645407277836057  -0.018499903649442102 
ctilde_basis_func: rank=1 ndens=2 mu0=0 mu=( 0 )
n=( 3 )
l=( 0 )
num_ms=1
< 0 >:  -299.197886804892789314  -2076.114917519650589384 
ctilde_basis_func: rank=1 ndens=2 mu0=0 mu=( 0 )
n=( 4 )
l=( 0 )
num_ms=1
< 0 >:  1032.458648237894749400  -1885.008861990404284370 
ctilde_basis_func: rank=1 ndens=2 mu0=0 mu=( 0 )
n=( 5 )
l=( 0 )
num_ms=1
< 0 >:  0.316444298354989384  -9.535356392647122092 
ctilde_basis_func: rank=1 ndens=2 mu0=0 mu=( 0 )
n=( 6 )
l=( 0 )
num_ms=1
< 0 >:  -419.891939982178314494  512.299689704997149420 
ctilde_basis_func: rank=1 ndens=2 mu0=0 mu=( 0 )
n=( 7 )
l=( 0 )
num_ms=1
< 0 >:  0.769919666754659615  6569.749671568419216783 
ctilde_basis_func: rank=1 ndens=2 mu0=0 mu=( 0 )
n=( 8 )
l=( 0 )
num_ms=1
< 0 >:  395.793516381265590098  -3788.261466784610547620 
ctilde_basis_func: rank=1 ndens=2 mu0=0 mu=( 0 )
n=( 9 )
l=( 0 )
num_ms=1
< 0 >:  -312.394709648371701860  -9848.163763945267419331 
ctilde_basis_func: rank=1 ndens=2 mu0=0 mu=( 0 )
n=( 10 )
l=( 0 )
num_ms=1
< 0 >:  105.936640008057239015  14094.155942857907575672 
ctilde_basis_func: rank=1 ndens=2 mu0=0 mu=( 0 )
n=( 11 )
l=( 0 )
num_ms=1
< 0 >:  -13.866082019138918469  -7083.769377337454898225 
ctilde_basis_func: rank=1 ndens=2 mu0=0 mu=( 0 )
n=( 12 )
l=( 0 )
num_ms=1
< 0 >:  0.156218905656240081  1320.345985627673599083 
total_basis_size: 300 
ctilde_basis_func: rank=2 ndens=2 mu0=0 mu=( 0  0 )
n=( 1  1 )
l=( 0  0 )
num_ms=1
< 0  0 >:  0.792987346110963554  9.975938478769286633 
ctilde_basis_func: rank=2 ndens=2 mu0=0 mu=( 0  0 )
n=( 1  1 )
l=( 1  1 )
num_ms=2
< 0  0 >:  0.060328785977576377  -1.584639161084268277 
< 1  -1 >:  -0.120657571955152754  3.169278322168536555 
ctilde_basis_func: rank=2 ndens=2 mu0=0 mu=( 0  0 )
n=( 1  1 )
l=( 2  2 )
num_ms=3
< 0  0 >:  0.026305029458641865  0.785307776866032259 
< 1  -1 >:  -0.052610058917283729  -1.570615553732064518 
< 2  -2 >:  0.052610058917283729  1.570615553732064518 
ctilde_basis_func: rank=2 ndens=2 mu0=0 mu=( 0  0 )
n=( 1  1 )
l=( 3  3 )
num_ms=4
< 0  0 >:  -0.017509564438283012  1.022402867291520412 
< 1  -1 >:  0.035019128876566025  -2.044805734583040824 
< 2  -2 >:  -0.035019128876566025  2.044805734583040824 
< 3  -3 >:  0.035019128876566025  -2.044805734583040824 
ctilde_basis_func: rank=2 ndens=2 mu0=0 mu=( 0  0 )
n=( 1  1 )
l=( 4  4 )
num_ms=5
< 0  0 >:  0.006138364171329820  0.224932338509158614 
< 1  -1 >:  -0.012276728342659641  -0.449864677018317283 
< 2  -2 >:  0.012276728342659641  0.449864677018317283 
< 3  -3 >:  -0.012276728342659639  -0.449864677018317227 
< 4  -4 >:  0.012276728342659639  0.449864677018317227 
ctilde_basis_func: rank=2 ndens=2 mu0=0 mu=( 0  0 )
n=( 2  1 )
l=( 0  0 )
num_ms=1
< 0  0 >:  189.600403122300377845  12.655600768792840682 
ctilde_basis_func: rank=2 ndens=2 mu0=0 mu=( 0  0 )
n=( 2  1 )
l=( 1  1 )
num_ms=2
< 0  0 >:  4064.848100344794602279  303.162999515304079523 
< 1  -1 >:  -8129.696200689589204558  -606.325999030608159046 
ctilde_basis_func: rank=2 ndens=2 mu0=0 mu=( 0  0 )
n=( 2  1 )
l=( 2  2 )
num_ms=3
< 0  0 >:  714.068535243975020421  -293.589321920185625459 
< 1  -1 >:  -1428.137070487950040842  587.178643840371250917 
< 2  -2 >:  1428.137070487950040842  -587.178643840371250917 
ctilde_basis_func: rank=2 ndens=2 mu0=0 mu=( 0  0 )
n=( 2  1 )
l=( 3  3 )
num_ms=4
< 0  0 >:  21.438059861562269504  -0.018987666826957218 
< 1  -1 >:  -42.876119723124539007  0.037975333653914436 
< 2  -2 >:  42.876119723124539007  -0.037975333653914436 
< 3  -3 >:  -42.876119723124539007  0.037975333653914443 
ctilde_basis_func: rank=2 ndens=2 mu0=0 mu=( 0  0 )
n=( 2  1 )
l=( 4  4 )
num_ms=5
< 0  0 >:  281.894010997009502262  -0.108645828828338009 
< 1  -1 >:  -563.788021994019118210  0.217291657656676046 
< 2  -2 >:  563.788021994019118210  -0.217291657656676046 
< 3  -3 >:  -563.788021994019004524  0.217291657656676018 
< 4  -4 >:  563.788021994019004524  -0.217291657656676018 
ctilde_basis_func: rank=2 ndens=2 mu0=0 mu=( 0  0 )
n=( 2  2 )
l=( 0  0 )
num_ms=1
< 0  0 >:  -1398.480806816317908670  0.002835296260785748 
ctilde_basis_func: rank=2 ndens=2 mu0=0 mu=( 0  0 )
n=( 2  2 )
l=( 1  1 )
num_ms=2
< 0  0 >:  562.498776462844148227  0.003328452467146905 
< 1  -1 >:  -1124.997552925688296455  -0.006656904934293811 
ctilde_basis_func: rank=2 ndens=2 mu0=0 mu=( 0  0 )
n=( 2  2 )
l=( 2  2 )
num_ms=3
< 0  0 >:  -875.316122874942152521  0.009336148398879956 
< 1  -1 >:  1750.632245749884305042  -0.018672296797759912 
< 2  -2 >:  -1750.632245749884305042  0.018672296797759912 
ctilde_basis_func: rank=2 ndens=2 mu0=0 mu=( 0  0 )
n=( 2  2 )
l=( 3  3 )
num_ms=4
< 0  0 >:  -328.479230352089416556  225.916069458245743817 
< 1  -1 >:  656.958460704178833112  -451.832138916491487635 
< 2  -2 >:  -656.958460704178833112  451.832138916491487635 
< 3  -3 >:  656.958460704178946798  -451.832138916491544478 
ctilde_basis_func: rank=2 ndens=2 mu0=0 mu=( 0  0 )
n=( 2  2 )
l=( 4  4 )
num_ms=5
< 0  0 >:  -188.473208393057348076  0.000327328606655511 
< 1  -1 >:  376.946416786114752995  -0.000654657213311023 
< 2  -2 >:  -376.946416786114752995  0.000654657213311023 
< 3  -3 >:  376.946416786114696151  -0.000654657213311023 
< 4  -4 >:  -376.946416786114696151  0.000654657213311023 
ctilde_basis_func: rank=2 ndens=2 mu0=0 mu=( 0  0 )
n=( 3  1 )
l=( 0  0 )
num_ms=1
< 0  0 >:  -73.051347176976221931  176.739123711647607706 
ctilde_basis_func: rank=2 ndens=2 mu0=0 mu=( 0  0 )
n=( 3  1 )
l=( 1  1 )
num_ms=2
< 0  0 >:  -2685.761378298753243143  603.518137974770183973 
< 1  -1 >:  5371.522756597506486287  -1207.036275949540367947 
ctilde_basis_func: rank=2 ndens=2 mu0=0 mu=( 0  0 )
n=( 3  1 )
l=( 2  2 )
num_ms=3
< 0  0 >:  -462.724788251152176599  -0.484703027910384998 
< 1  -1 >:  925.449576502304353198  0.969406055820769996 
< 2  -2 >:  -925.449576502304353198  -0.969406055820769996 
ctilde_basis_func: rank=2 ndens=2 mu0=0 mu=( 0  0 )
n=( 3  1 )
l=( 3  3 )
num_ms=4
< 0  0 >:  5.674726015557671310  -4.317293166166267682 
< 1  -1 >:  -11.349452031115342621  8.634586332332535363 
< 2  -2 >:  11.349452031115342621  -8.634586332332535363 
< 3  -3 >:  -11.349452031115344397  8.634586332332537140 
ctilde_basis_func: rank=2 ndens=2 mu0=0 mu=( 0  0 )
n=( 3  1 )
l=( 4  4 )
num_ms=5
< 0  0 >:  -191.812555785832898891  -4.298140220442161485 
< 1  -1 >:  383.625111571665854626  8.596280440884324747 
< 2  -2 >:  -383.625111571665854626  -8.596280440884324747 
< 3  -3 >:  383.625111571665797783  8.596280440884322971 
< 4  -4 >:  -383.625111571665797783  -8.596280440884322971 
ctilde_basis_func: rank=2 ndens=2 mu0=0 mu=( 0  0 )
n=( 3  2 )
l=( 0  0 )
num_ms=1
< 0  0 >:  -1.932014894809480632  -3828.841209579848964495 
ctilde_basis_func: rank=2 ndens=2 mu0=0 mu=( 0  0 )
n=( 3  2 )
l=( 1  1 )
num_ms=2
< 0  0 >:  1314.599057780295879638  -0.002461211075977259 
< 1  -1 >:  -2629.198115560591759277  0.004922422151954518 
ctilde_basis_func: rank=2 ndens=2 mu0=0 mu=( 0  0 )
n=( 3  2 )
l=( 2  2 )
num_ms=3
< 0  0 >:  11.899631286079467074  0.020626410619064450 
< 1  -1 >:  -23.799262572158934148  -0.041252821238128901 
< 2  -2 >:  23.799262572158934148  0.041252821238128901 
ctilde_basis_func: rank=2 ndens=2 mu0=0 mu=( 0  0 )
n=( 3  2 )
l=( 3  3 )
num_ms=4
< 0  0 >:  -9.265749675529317386  131.497048273139114372 
< 1  -1 >:  18.531499351058634772  -262.994096546278228743 
< 2  -2 >:  -18.531499351058634772  262.994096546278228743 
< 3  -3 >:  18.531499351058638325  -262.994096546278285587 
ctilde_basis_func: rank=2 ndens=2 mu0=0 mu=( 0  0 )
n=( 3  2 )
l=( 4  4 )
num_ms=5
< 0  0 >:  1.664222316274203806  -0.005540164787176522 
< 1  -1 >:  -3.328444632548408055  0.011080329574353046 
< 2  -2 >:  3.328444632548408055  -0.011080329574353046 
< 3  -3 >:  -3.328444632548407611  0.011080329574353044 
< 4  -4 >:  3.328444632548407611  -0.011080329574353044 
ctilde_basis_func: rank=2 ndens=2 mu0=0 mu=( 0  0 )
n=( 3  3 )
l=( 0  0 )
num_ms=1
< 0  0 >:  -1.806078104151602304  -15221.743817991346077179 
ctilde_basis_func: rank=2 ndens=2 mu0=0 mu=( 0  0 )
n=( 3  3 )
l=( 1  1 )
num_ms=2
< 0  0 >:  -815.665102404274080072  56.454821168585759494 
< 1  -1 >:  1631.330204808548160145  -112.909642337171518989 
ctilde_basis_func: rank=2 ndens=2 mu0=0 mu=( 0  0 )
n=( 3  3 )
l=( 2  2 )
num_ms=3
< 0  0 >:  541.011299677565375532  28.437304024940864622 
< 1  -1 >:  -1082.022599355130751064  -56.874608049881729244 
< 2  -2 >:  1082.022599355130751064  56.874608049881729244 
ctilde_basis_func: rank=2 ndens=2 mu0=0 mu=( 0  0 )
n=( 3  3 )
l=( 3  3 )
num_ms=4
< 0  0 >:  157.124459128780301853  4.976671109019061845 
< 1  -1 >:  -314.248918257560603706  -9.953342218038123690 
< 2  -2 >:  314.248918257560603706  9.953342218038123690 
< 3  -3 >:  -314.248918257560660550  -9.953342218038125466 
ctilde_basis_func: rank=2 ndens=2 mu0=0 mu=( 0  0 )
n=( 3  3 )
l=( 4  4 )
num_ms=5
< 0  0 >:  94.296041476275462401  -109.217406674638056074 
< 1  -1 >:  -188.592082952550953223  218.434813349276168992 
< 2  -2 >:  188.592082952550953223  -218.434813349276168992 
< 3  -3 >:  -188.592082952550924801  218.434813349276112149 
< 4  -4 >:  188.592082952550924801  -218.434813349276112149 
ctilde_basis_func: rank=2 ndens=2 mu0=0 mu=( 0  0 )
n=( 4  1 )
l=( 0  0 )
num_ms=1
< 0  0 >:  -5.435258494139531216  2.103921454220742948 
ctilde_basis_func: rank=2 ndens=2 mu0=0 mu=( 0  0 )
n=( 4  1 )
l=( 1  1 )
num_ms=2
< 0  0 >:  1308.062061756692628478  -565.737964631737895616 
< 1  -1 >:  -2616.124123513385256956  1131.475929263475791231 
ctilde_basis_func: rank=2 ndens=2 mu0=0 mu=( 0  0 )
n=( 4  1 )
l=( 2  2 )
num_ms=3
< 0  0 >:  217.415496010403700211  331.259614814435394692 
< 1  -1 >:  -434.830992020807400422  -662.519229628870789384 
< 2  -2 >:  434.830992020807400422  662.519229628870789384 
ctilde_basis_func: rank=2 ndens=2 mu0=0 mu=( 0  0 )
n=( 4  1 )
l=( 3  3 )
num_ms=4
< 0  0 >:  -19.736748469663069727  -213.022133595722664268 
< 1  -1 >:  39.473496939326139454  426.044267191445328535 
< 2  -2 >:  -39.473496939326139454  -426.044267191445328535 
< 3  -3 >:  39.473496939326146560  426.044267191445385379 
ctilde_basis_func: rank=2 ndens=2 mu0=0 mu=( 0  0 )
n=( 4  1 )
l=( 4  4 )
num_ms=5
< 0  0 >:  98.537339442070688733  33.863777316234347836 
< 1  -1 >:  -197.074678884141405888  -67.727554632468709883 
< 2  -2 >:  197.074678884141405888  67.727554632468709883 
< 3  -3 >:  -197.074678884141377466  -67.727554632468695672 
< 4  -4 >:  197.074678884141377466  67.727554632468695672 
ctilde_basis_func: rank=2 ndens=2 mu0=0 mu=( 0  0 )
n=( 4  2 )
l=( 0  0 )
num_ms=1
< 0  0 >:  731.722025341941844090  0.082950114416423276 
ctilde_basis_func: rank=2 ndens=2 mu0=0 mu=( 0  0 )
n=( 4  2 )
l=( 1  1 )
num_ms=2
< 0  0 >:  -1.826552477082654002  0.120565350016783146 
< 1  -1 >:  3.653104954165308005  -0.241130700033566292 
ctilde_basis_func: rank=2 ndens=2 mu0=0 mu=( 0  0 )
n=( 4  2 )
l=( 2  2 )
num_ms=3
< 0  0 >:  -196.862891769616993543  -0.003903416957146700 
< 1  -1 >:  393.725783539233987085  0.007806833914293401 
< 2  -2 >:  -393.725783539233987085  -0.007806833914293401 
ctilde_basis_func: rank=2 ndens=2 mu0=0 mu=( 0  0 )
n=( 4  2 )
l=( 3  3 )
num_ms=4
< 0  0 >:  -162.075963698569694316  -0.001106801851461836 
< 1  -1 >:  324.151927397139388631  0.002213603702923671 
< 2  -2 >:  -324.151927397139388631  -0.002213603702923671 
< 3  -3 >:  324.151927397139388631  0.002213603702923672 
ctilde_basis_func: rank=2 ndens=2 mu0=0 mu=( 0  0 )
n=( 4  2 )
l=( 4  4 )
num_ms=5
< 0  0 >:  -179.560568913532080160  -139.282031280180973454 
< 1  -1 >:  359.121137827064217163  278.564062560362003751 
< 2  -2 >:  -359.121137827064217163  -278.564062560362003751 
< 3  -3 >:  359.121137827064160319  278.564062560361946908 
< 4  -4 >:  -359.121137827064160319  -278.564062560361946908 
ctilde_basis_func: rank=2 ndens=2 mu0=0 mu=( 0  0 )
n=( 4  3 )
l=( 0  0 )
num_ms=1
< 0  0 >:  403.871983253362600408  -2305.120639030421443749 
ctilde_basis_func: rank=2 ndens=2 mu0=0 mu=( 0  0 )
n=( 4  3 )
l=( 1  1 )
num_ms=2
< 0  0 >:  2.182992897193207327  -10.739282258780065149 
< 1  -1 >:  -4.365985794386414653  21.478564517560130298 
ctilde_basis_func: rank=2 ndens=2 mu0=0 mu=( 0  0 )
n=( 4  3 )
l=( 2  2 )
num_ms=3
< 0  0 >:  -483.326786512244950700  0.026235120117598789 
< 1  -1 >:  966.653573024489901400  -0.052470240235197578 
< 2  -2 >:  -966.653573024489901400  0.052470240235197578 
ctilde_basis_func: rank=2 ndens=2 mu0=0 mu=( 0  0 )
n=( 4  3 )
l=( 3  3 )
num_ms=4
< 0  0 >:  -40.914131386804221790  -0.107445467922333587 
< 1  -1 >:  81.828262773608443581  0.214890935844667175 
< 2  -2 >:  -81.828262773608443581  -0.214890935844667175 
< 3  -3 >:  81.828262773608457792  0.214890935844667202 
ctilde_basis_func: rank=2 ndens=2 mu0=0 mu=( 0  0 )
n=( 4  3 )
l=( 4  4 )
num_ms=5
< 0  0 >:  5.801188328559144125  -206.469657292974716256 
< 1  -1 >:  -11.602376657118290026  412.939314585949489356 
< 2  -2 >:  11.602376657118290026  -412.939314585949489356 
< 3  -3 >:  -11.602376657118288250  412.939314585949432512 
< 4  -4 >:  11.602376657118288250  -412.939314585949432512 
ctilde_basis_func: rank=2 ndens=2 mu0=0 mu=( 0  0 )
n=( 4  4 )
l=( 0  0 )
num_ms=1
< 0  0 >:  -472.062739817503313589  -901.633075286247503755 
ctilde_basis_func: rank=2 ndens=2 mu0=0 mu=( 0  0 )
n=( 4  4 )
l=( 1  1 )
num_ms=2
< 0  0 >:  257.963269787144270140  -49.320514494629478008 
< 1  -1 >:  -515.926539574288540280  98.641028989258956017 
ctilde_basis_func: rank=2 ndens=2 mu0=0 mu=( 0  0 )
n=( 4  4 )
l=( 2  2 )
num_ms=3
< 0  0 >:  54.685057733438974026  99.450012468714660940 
< 1  -1 >:  -109.370115466877948052  -198.900024937429321881 
< 2  -2 >:  109.370115466877948052  198.900024937429321881 
ctilde_basis_func: rank=2 ndens=2 mu0=0 mu=( 0  0 )
n=( 4  4 )
l=( 3  3 )
num_ms=4
< 0  0 >:  -21.163492498991885782  14.940960387596826209 
< 1  -1 >:  42.326984997983771564  -29.881920775193652418 
< 2  -2 >:  -42.326984997983771564  29.881920775193652418 
< 3  -3 >:  42.326984997983778669  -29.881920775193655970 
ctilde_basis_func: rank=2 ndens=2 mu0=0 mu=( 0  0 )
n=( 4  4 )
l=( 4  4 )
num_ms=5
< 0  0 >:  -15.317449552142173630  438.316707510179696783 
< 1  -1 >:  30.634899104284350813  -876.633415020359507253 
< 2  -2 >:  -30.634899104284350813  876.633415020359507253 
< 3  -3 >:  30.634899104284347260  -876.633415020359393566 
< 4  -4 >:  -30.634899104284347260  876.633415020359393566 
ctilde_basis_func: rank=2 ndens=2 mu0=0 mu=( 0  0 )
n=( 5  1 )
l=( 0  0 )
num_ms=1
< 0  0 >:  21.256411961790519172  -230.065206149109798162 
ctilde_basis_func: rank=2 ndens=2 mu0=0 mu=( 0  0 )
n=( 5  1 )
l=( 1  1 )
num_ms=2
< 0  0 >:  -444.128244543555410928  -252.246868229896591629 
< 1  -1 >:  888.256489087110821856  504.493736459793183258 
ctilde_basis_func: rank=2 ndens=2 mu0=0 mu=( 0  0 )
n=( 5  1 )
l=( 2  2 )
num_ms=3
< 0  0 >:  -69.267324959706471077  -319.846793622985330785 
< 1  -1 >:  138.534649919412942154  639.693587245970661570 
< 2  -2 >:  -138.534649919412942154  -639.693587245970661570 
ctilde_basis_func: rank=2 ndens=2 mu0=0 mu=( 0  0 )
n=( 5  1 )
l=( 3  3 )
num_ms=4
< 0  0 >:  15.771740782431944439  303.221654883507085287 
< 1  -1 >:  -31.543481564863888877  -606.443309767014170575 
< 2  -2 >:  31.543481564863888877  606.443309767014170575 
< 3  -3 >:  -31.543481564863895983  -606.443309767014284262 
ctilde_basis_func: rank=2 ndens=2 mu0=0 mu=( 0  0 )
n=( 5  1 )
l=( 4  4 )
num_ms=5
< 0  0 >:  -36.524688207551648134  -0.819983730118907017 
< 1  -1 >:  73.049376415103310478  1.639967460237814256 
< 2  -2 >:  -73.049376415103310478  -1.639967460237814256 
< 3  -3 >:  73.049376415103296267  1.639967460237814034 
< 4  -4 >:  -73.049376415103296267  -1.639967460237814034 
ctilde_basis_func: rank=2 ndens=2 mu0=0 mu=( 0  0 )
n=( 5  2 )
l=( 0  0 )
num_ms=1
< 0  0 >:  -1607.905666313487472507  -19.572068756818968183 
ctilde_basis_func: rank=2 ndens=2 mu0=0 mu=( 0  0 )
n=( 5  2 )
l=( 1  1 )
num_ms=2
< 0  0 >:  -3128.241255882097902941  -0.000993353198099859 
< 1  -1 >:  6256.482511764195805881  0.001986706396199717 
ctilde_basis_func: rank=2 ndens=2 mu0=0 mu=( 0  0 )
n=( 5  2 )
l=( 2  2 )
num_ms=3
< 0  0 >:  48.387651809124520241  -1.168282542803744661 
< 1  -1 >:  -96.775303618249040483  2.336565085607489323 
< 2  -2 >:  96.775303618249040483  -2.336565085607489323 
ctilde_basis_func: rank=2 ndens=2 mu0=0 mu=( 0  0 )
n=( 5  2 )
l=( 3  3 )
num_ms=4
< 0  0 >:  91.398525124112168783  0.005345865448004159 
< 1  -1 >:  -182.797050248224337565  -0.010691730896008318 
< 2  -2 >:  182.797050248224337565  0.010691730896008318 
< 3  -3 >:  -182.797050248224365987  -0.010691730896008318 
ctilde_basis_func: rank=2 ndens=2 mu0=0 mu=( 0  0 )
n=( 5  2 )
l=( 4  4 )
num_ms=5
< 0  0 >:  -61.449257086560407970  -24.676252083919781199 
< 1  -1 >:  122.898514173120830151  49.352504167839569504 
< 2  -2 >:  -122.898514173120830151  -49.352504167839569504 
< 3  -3 >:  122.898514173120815940  49.352504167839562399 
< 4  -4 >:  -122.898514173120815940  -49.352504167839562399 
ctilde_basis_func: rank=2 ndens=2 mu0=0 mu=( 0  0 )
n=( 5  3 )
l=( 0  0 )
num_ms=1
< 0  0 >:  687.392932280135596557  1195.705819939476441505 
ctilde_basis_func: rank=2 ndens=2 mu0=0 mu=( 0  0 )
n=( 5  3 )
l=( 1  1 )
num_ms=2
< 0  0 >:  2134.569839385693285294  -0.768038518622955246 
< 1  -1 >:  -4269.139678771386570588  1.536077037245910493 
ctilde_basis_func: rank=2 ndens=2 mu0=0 mu=( 0  0 )
n=( 5  3 )
l=( 2  2 )
num_ms=3
< 0  0 >:  222.570829444091828009  -8.581272440271311197 
< 1  -1 >:  -445.141658888183656018  17.162544880542622394 
< 2  -2 >:  445.141658888183656018  -17.162544880542622394 
ctilde_basis_func: rank=2 ndens=2 mu0=0 mu=( 0  0 )
n=( 5  3 )
l=( 3  3 )
num_ms=4
< 0  0 >:  1.742644946366404435  14.376252194366225368 
< 1  -1 >:  -3.485289892732808870  -28.752504388732450735 
< 2  -2 >:  3.485289892732808870  28.752504388732450735 
< 3  -3 >:  -3.485289892732809314  -28.752504388732454288 
ctilde_basis_func: rank=2 ndens=2 mu0=0 mu=( 0  0 )
n=( 5  3 )
l=( 4  4 )
num_ms=5
< 0  0 >:  105.402378264113934847  -110.724201791341045009 
< 1  -1 >:  -210.804756528227898116  221.448403582682118440 
< 2  -2 >:  210.804756528227898116  -221.448403582682118440 
< 3  -3 >:  -210.804756528227869694  221.448403582682090018 
< 4  -4 >:  210.804756528227869694  -221.448403582682090018 
ctilde_basis_func: rank=2 ndens=2 mu0=0 mu=( 0  0 )
n=( 5  4 )
l=( 0  0 )
num_ms=1
< 0  0 >:  -194.983845727598549047  49.300519588884498035 
ctilde_basis_func: rank=2 ndens=2 mu0=0 mu=( 0  0 )
n=( 5  4 )
l=( 1  1 )
num_ms=2
< 0  0 >:  -1131.738359371403703335  -20.290593753867465665 
< 1  -1 >:  2263.476718742807406670  40.581187507734931330 
ctilde_basis_func: rank=2 ndens=2 mu0=0 mu=( 0  0 )
n=( 5  4 )
l=( 2  2 )
num_ms=3
< 0  0 >:  -15.556732802244903624  -13.386781694989453584 
< 1  -1 >:  31.113465604489807248  26.773563389978907168 
< 2  -2 >:  -31.113465604489807248  -26.773563389978907168 
ctilde_basis_func: rank=2 ndens=2 mu0=0 mu=( 0  0 )
n=( 5  4 )
l=( 3  3 )
num_ms=4
< 0  0 >:  7.947548677591904642  3.930410925199657513 
< 1  -1 >:  -15.895097355183809285  -7.860821850399315025 
< 2  -2 >:  15.895097355183809285  7.860821850399315025 
< 3  -3 >:  -15.895097355183811061  -7.860821850399316801 
ctilde_basis_func: rank=2 ndens=2 mu0=0 mu=( 0  0 )
n=( 5  4 )
l=( 4  4 )
num_ms=5
< 0  0 >:  -69.652240267967073351  0.001422279826448070 
< 1  -1 >:  139.304480535934175123  -0.002844559652896140 
< 2  -2 >:  -139.304480535934175123  0.002844559652896140 
< 3  -3 >:  139.304480535934146701  -0.002844559652896140 
< 4  -4 >:  -139.304480535934146701  0.002844559652896140 
ctilde_basis_func: rank=2 ndens=2 mu0=0 mu=( 0  0 )
n=( 5  5 )
l=( 0  0 )
num_ms=1
< 0  0 >:  280.221125680060310970  -2362.241789837299620558 
ctilde_basis_func: rank=2 ndens=2 mu0=0 mu=( 0  0 )
n=( 5  5 )
l=( 1  1 )
num_ms=2
< 0  0 >:  274.874586439323138620  853.268961169082103879 
< 1  -1 >:  -549.749172878646277240  -1706.537922338164207758 
ctilde_basis_func: rank=2 ndens=2 mu0=0 mu=( 0  0 )
n=( 5  5 )
l=( 2  2 )
num_ms=3
< 0  0 >:  -11.542435822293272807  -171.520773645621630976 
< 1  -1 >:  23.084871644586545614  343.041547291243261952 
< 2  -2 >:  -23.084871644586545614  -343.041547291243261952 
ctilde_basis_func: rank=2 ndens=2 mu0=0 mu=( 0  0 )
n=( 5  5 )
l=( 3  3 )
num_ms=4
< 0  0 >:  8.482962239189603793  245.707958226013403191 
< 1  -1 >:  -16.965924478379207585  -491.415916452026806382 
< 2  -2 >:  16.965924478379207585  491.415916452026806382 
< 3  -3 >:  -16.965924478379211138  -491.415916452026863226 
ctilde_basis_func: rank=2 ndens=2 mu0=0 mu=( 0  0 )
n=( 5  5 )
l=( 4  4 )
num_ms=5
< 0  0 >:  39.205248409513295371  -312.364192297254930963 
< 1  -1 >:  -78.410496819026604953  624.728384594509975614 
< 2  -2 >:  78.410496819026604953  -624.728384594509975614 
< 3  -3 >:  -78.410496819026590742  624.728384594509861927 
< 4  -4 >:  78.410496819026590742  -624.728384594509861927 
ctilde_basis_func: rank=2 ndens=2 mu0=0 mu=( 0  0 )
n=( 6  1 )
l=( 0  0 )
num_ms=1
< 0  0 >:  -11.585212159486218297  -66.208703126004579076 
ctilde_basis_func: rank=2 ndens=2 mu0=0 mu=( 0  0 )
n=( 6  1 )
l=( 1  1 )
num_ms=2
< 0  0 >:  93.529604287186273837  457.696495261531879351 
< 1  -1 >:  -187.059208574372547673  -915.392990523063758701 
ctilde_basis_func: rank=2 ndens=2 mu0=0 mu=( 0  0 )
n=( 6  1 )
l=( 2  2 )
num_ms=3
< 0  0 >:  12.725473132224003336  68.603365334128326936 
< 1  -1 >:  -25.450946264448006673  -137.206730668256653871 
< 2  -2 >:  25.450946264448006673  137.206730668256653871 
ctilde_basis_func: rank=2 ndens=2 mu0=0 mu=( 0  0 )
n=( 6  1 )
l=( 3  3 )
num_ms=4
< 0  0 >:  -6.419537489770791083  -162.759115034640814201 
< 1  -1 >:  12.839074979541582167  325.518230069281628403 
< 2  -2 >:  -12.839074979541582167  -325.518230069281628403 
< 3  -3 >:  12.839074979541583943  325.518230069281685246 
ctilde_basis_func: rank=2 ndens=2 mu0=0 mu=( 0  0 )
n=( 6  1 )
l=( 4  4 )
num_ms=5
< 0  0 >:  8.864692846331577059  -36.371462417643527942 
< 1  -1 >:  -17.729385692663157670  72.742924835287070096 
< 2  -2 >:  17.729385692663157670  -72.742924835287070096 
< 3  -3 >:  -17.729385692663154117  72.742924835287055885 
< 4  -4 >:  17.729385692663154117  -72.742924835287055885 
ctilde_basis_func: rank=2 ndens=2 mu0=0 mu=( 0  0 )
n=( 6  2 )
l=( 0  0 )
num_ms=1
< 0  0 >:  1658.325719359704180533  -10.447901869047413470 
ctilde_basis_func: rank=2 ndens=2 mu0=0 mu=( 0  0 )
n=( 6  2 )
l=( 1  1 )
num_ms=2
< 0  0 >:  -1974.242385983548501827  -0.012532514564964558 
< 1  -1 >:  3948.484771967097003653  0.025065029129929115 
ctilde_basis_func: rank=2 ndens=2 mu0=0 mu=( 0  0 )
n=( 6  2 )
l=( 2  2 )
num_ms=3
< 0  0 >:  -208.598904227079714246  -748.931923875791653700 
< 1  -1 >:  417.197808454159428493  1497.863847751583307399 
< 2  -2 >:  -417.197808454159428493  -1497.863847751583307399 
ctilde_basis_func: rank=2 ndens=2 mu0=0 mu=( 0  0 )
n=( 6  2 )
l=( 3  3 )
num_ms=4
< 0  0 >:  175.414462037033842989  826.750861550296917812 
< 1  -1 >:  -350.828924074067685979  -1653.501723100593835625 
< 2  -2 >:  350.828924074067685979  1653.501723100593835625 
< 3  -3 >:  -350.828924074067742822  -1653.501723100594062998 
ctilde_basis_func: rank=2 ndens=2 mu0=0 mu=( 0  0 )
n=( 6  2 )
l=( 4  4 )
num_ms=5
< 0  0 >:  -31.048310982266031033  -0.123110651010429131 
< 1  -1 >:  62.096621964532069171  0.246221302020858290 
< 2  -2 >:  -62.096621964532069171  -0.246221302020858290 
< 3  -3 >:  62.096621964532062066  0.246221302020858263 
< 4  -4 >:  -62.096621964532062066  -0.246221302020858263 
ctilde_basis_func: rank=2 ndens=2 mu0=0 mu=( 0  0 )
n=( 6  3 )
l=( 0  0 )
num_ms=1
< 0  0 >:  -1170.465848348071176588  -4.508866442361494364 
ctilde_basis_func: rank=2 ndens=2 mu0=0 mu=( 0  0 )
n=( 6  3 )
l=( 1  1 )
num_ms=2
< 0  0 >:  1214.911711221411451334  -500.992429628516163120 
< 1  -1 >:  -2429.823422442822902667  1001.984859257032326241 
ctilde_basis_func: rank=2 ndens=2 mu0=0 mu=( 0  0 )
n=( 6  3 )
l=( 2  2 )
num_ms=3
< 0  0 >:  1.916619307665994754  -618.712149150154800736 
< 1  -1 >:  -3.833238615331989507  1237.424298300309601473 
< 2  -2 >:  3.833238615331989507  -1237.424298300309601473 
ctilde_basis_func: rank=2 ndens=2 mu0=0 mu=( 0  0 )
n=( 6  3 )
l=( 3  3 )
num_ms=4
< 0  0 >:  -154.170304465426141860  1.345834761949364911 
< 1  -1 >:  308.340608930852283720  -2.691669523898729821 
< 2  -2 >:  -308.340608930852283720  2.691669523898729821 
< 3  -3 >:  308.340608930852340563  -2.691669523898730265 
ctilde_basis_func: rank=2 ndens=2 mu0=0 mu=( 0  0 )
n=( 6  3 )
l=( 4  4 )
num_ms=5
< 0  0 >:  -1.748952231654500311  -51.325010392659436320 
< 1  -1 >:  3.497904463309001066  102.650020785318886851 
< 2  -2 >:  -3.497904463309001066  -102.650020785318886851 
< 3  -3 >:  3.497904463309000622  102.650020785318872640 
< 4  -4 >:  -3.497904463309000622  -102.650020785318872640 
ctilde_basis_func: rank=2 ndens=2 mu0=0 mu=( 0  0 )
n=( 6  4 )
l=( 0  0 )
num_ms=1
< 0  0 >:  763.491563827762774963  51.031734072601615537 
ctilde_basis_func: rank=2 ndens=2 mu0=0 mu=( 0  0 )
n=( 6  4 )
l=( 1  1 )
num_ms=2
< 0  0 >:  -565.362781224385571477  -646.801372890790389647 
< 1  -1 >:  1130.725562448771142954  1293.602745781580779294 
ctilde_basis_func: rank=2 ndens=2 mu0=0 mu=( 0  0 )
n=( 6  4 )
l=( 2  2 )
num_ms=3
< 0  0 >:  22.730209398476151961  753.416980853806535379 
< 1  -1 >:  -45.460418796952303921  -1506.833961707613070757 
< 2  -2 >:  45.460418796952303921  1506.833961707613070757 
ctilde_basis_func: rank=2 ndens=2 mu0=0 mu=( 0  0 )
n=( 6  4 )
l=( 3  3 )
num_ms=4
< 0  0 >:  98.754449977735617949  -800.131707874111384626 
< 1  -1 >:  -197.508899955471235899  1600.263415748222769253 
< 2  -2 >:  197.508899955471235899  -1600.263415748222769253 
< 3  -3 >:  -197.508899955471264320  1600.263415748222996626 
ctilde_basis_func: rank=2 ndens=2 mu0=0 mu=( 0  0 )
n=( 6  4 )
l=( 4  4 )
num_ms=5
< 0  0 >:  15.284774808531935264  174.007419827960518433 
< 1  -1 >:  -30.569549617063874081  -348.014839655921093708 
< 2  -2 >:  30.569549617063874081  348.014839655921093708 
< 3  -3 >:  -30.569549617063870528  -348.014839655921036865 
< 4  -4 >:  30.569549617063870528  348.014839655921036865 
ctilde_basis_func: rank=2 ndens=2 mu0=0 mu=( 0  0 )
n=( 6  5 )
l=( 0  0 )
num_ms=1
< 0  0 >:  -588.721280064907318774  2692.647943434450553468 
ctilde_basis_func: rank=2 ndens=2 mu0=0 mu=( 0  0 )
n=( 6  5 )
l=( 1  1 )
num_ms=2
< 0  0 >:  201.447005086896893999  3.506013383168949726 
< 1  -1 >:  -402.894010173793787999  -7.012026766337899453 
ctilde_basis_func: rank=2 ndens=2 mu0=0 mu=( 0  0 )
n=( 6  5 )
l=( 2  2 )
num_ms=3
< 0  0 >:  -27.897915819942085136  -10.779529435458458764 
< 1  -1 >:  55.795831639884170272  21.559058870916917527 
< 2  -2 >:  -55.795831639884170272  -21.559058870916917527 
ctilde_basis_func: rank=2 ndens=2 mu0=0 mu=( 0  0 )
n=( 6  5 )
l=( 3  3 )
num_ms=4
< 0  0 >:  -55.904415299059316169  24.100969541380109717 
< 1  -1 >:  111.808830598118632338  -48.201939082760219435 
< 2  -2 >:  -111.808830598118632338  48.201939082760219435 
< 3  -3 >:  111.808830598118646549  -48.201939082760226540 
ctilde_basis_func: rank=2 ndens=2 mu0=0 mu=( 0  0 )
n=( 6  5 )
l=( 4  4 )
num_ms=5
< 0  0 >:  -27.979726313485663525  0.379055553514929922 
< 1  -1 >:  55.959452626971341260  -0.758111107029859954 
< 2  -2 >:  -55.959452626971341260  0.758111107029859954 
< 3  -3 >:  55.959452626971327049  -0.758111107029859843 
< 4  -4 >:  -55.959452626971327049  0.758111107029859843 
ctilde_basis_func: rank=2 ndens=2 mu0=0 mu=( 0  0 )
n=( 6  6 )
l=( 0  0 )
num_ms=1
< 0  0 >:  174.021667912196932093  172.721268578441652153 
ctilde_basis_func: rank=2 ndens=2 mu0=0 mu=( 0  0 )
n=( 6  6 )
l=( 1  1 )
num_ms=2
< 0  0 >:  -62.546514912144651532  -390.102469243805444421 
< 1  -1 >:  125.093029824289303065  780.204938487610888842 
ctilde_basis_func: rank=2 ndens=2 mu0=0 mu=( 0  0 )
n=( 6  6 )
l=( 2  2 )
num_ms=3
< 0  0 >:  16.739281083408464212  -119.574884675324355499 
< 1  -1 >:  -33.478562166816928425  239.149769350648710997 
< 2  -2 >:  33.478562166816928425  -239.149769350648710997 
ctilde_basis_func: rank=2 ndens=2 mu0=0 mu=( 0  0 )
n=( 6  6 )
l=( 3  3 )
num_ms=4
< 0  0 >:  16.620755399787139339  182.231846833838545763 
< 1  -1 >:  -33.241510799574278678  -364.463693667677091526 
< 2  -2 >:  33.241510799574278678  364.463693667677091526 
< 3  -3 >:  -33.241510799574278678  -364.463693667677148369 
ctilde_basis_func: rank=2 ndens=2 mu0=0 mu=( 0  0 )
n=( 6  6 )
l=( 4  4 )
num_ms=5
< 0  0 >:  6.600482616079641929  176.693159715481925787 
< 1  -1 >:  -13.200965232159285634  -353.386319430963908417 
< 2  -2 >:  13.200965232159285634  353.386319430963908417 
< 3  -3 >:  -13.200965232159283858  -353.386319430963851573 
< 4  -4 >:  13.200965232159283858  353.386319430963851573 
ctilde_basis_func: rank=2 ndens=2 mu0=0 mu=( 0  0 )
n=( 7  1 )
l=( 0  0 )
num_ms=1
< 0  0 >:  1.938391932965629394  36.177144005214593392 
ctilde_basis_func: rank=2 ndens=2 mu0=0 mu=( 0  0 )
n=( 7  1 )
l=( 1  1 )
num_ms=2
< 0  0 >:  -9.146043848300966062  -127.080233086341650051 
< 1  -1 >:  18.292087696601932123  254.160466172683300101 
ctilde_basis_func: rank=2 ndens=2 mu0=0 mu=( 0  0 )
n=( 7  1 )
l=( 2  2 )
num_ms=3
< 0  0 >:  -0.838496230759194661  21.555022924819400743 
< 1  -1 >:  1.676992461518389321  -43.110045849638801485 
< 2  -2 >:  -1.676992461518389321  43.110045849638801485 
ctilde_basis_func: rank=2 ndens=2 mu0=0 mu=( 0  0 )
n=( 7  1 )
l=( 3  3 )
num_ms=4
< 0  0 >:  1.208773044995443913  27.665046033217940646 
< 1  -1 >:  -2.417546089990887825  -55.330092066435881293 
< 2  -2 >:  2.417546089990887825  55.330092066435881293 
< 3  -3 >:  -2.417546089990888269  -55.330092066435888398 
ctilde_basis_func: rank=2 ndens=2 mu0=0 mu=( 0  0 )
n=( 7  1 )
l=( 4  4 )
num_ms=5
< 0  0 >:  -1.085974576522278134  16.721417312867014715 
< 1  -1 >:  2.171949153044556713  -33.442834625734036536 
< 2  -2 >:  -2.171949153044556713  33.442834625734036536 
< 3  -3 >:  2.171949153044556269  -33.442834625734029430 
< 4  -4 >:  -2.171949153044556269  33.442834625734029430 
ctilde_basis_func: rank=2 ndens=2 mu0=0 mu=( 0  0 )
n=( 7  2 )
l=( 0  0 )
num_ms=1
< 0  0 >:  -598.655017702810368974  2.113910704296710463 
ctilde_basis_func: rank=2 ndens=2 mu0=0 mu=( 0  0 )
n=( 7  2 )
l=( 1  1 )
num_ms=2
< 0  0 >:  34.329862002387422137  2.085446141434252443 
< 1  -1 >:  -68.659724004774844275  -4.170892282868504886 
ctilde_basis_func: rank=2 ndens=2 mu0=0 mu=( 0  0 )
n=( 7  2 )
l=( 2  2 )
num_ms=3
< 0  0 >:  -168.232343808607282654  0.176179713701253349 
< 1  -1 >:  336.464687617214565307  -0.352359427402506697 
< 2  -2 >:  -336.464687617214565307  0.352359427402506697 
ctilde_basis_func: rank=2 ndens=2 mu0=0 mu=( 0  0 )
n=( 7  2 )
l=( 3  3 )
num_ms=4
< 0  0 >:  258.018462933015882754  -0.000625344694042010 
< 1  -1 >:  -516.036925866031765509  0.001250689388084020 
< 2  -2 >:  516.036925866031765509  -0.001250689388084020 
< 3  -3 >:  -516.036925866031879195  0.001250689388084020 
ctilde_basis_func: rank=2 ndens=2 mu0=0 mu=( 0  0 )
n=( 7  2 )
l=( 4  4 )
num_ms=5
< 0  0 >:  -3.606831972122908958  -1.602600811884892673 
< 1  -1 >:  7.213663944245819692  3.205201623769785790 
< 2  -2 >:  -7.213663944245819692  -3.205201623769785790 
< 3  -3 >:  7.213663944245817916  3.205201623769785346 
< 4  -4 >:  -7.213663944245817916  -3.205201623769785346 
ctilde_basis_func: rank=2 ndens=2 mu0=0 mu=( 0  0 )
n=( 7  3 )
l=( 0  0 )
num_ms=1
< 0  0 >:  335.287314746991285119  -1678.271279524891951951 
ctilde_basis_func: rank=2 ndens=2 mu0=0 mu=( 0  0 )
n=( 7  3 )
l=( 1  1 )
num_ms=2
< 0  0 >:  -18.997583925829996332  875.678268514653609600 
< 1  -1 >:  37.995167851659992664  -1751.356537029307219200 
ctilde_basis_func: rank=2 ndens=2 mu0=0 mu=( 0  0 )
n=( 7  3 )
l=( 2  2 )
num_ms=3
< 0  0 >:  114.753595749199533316  87.288398231163554897 
< 1  -1 >:  -229.507191498399066631  -174.576796462327109793 
< 2  -2 >:  229.507191498399066631  174.576796462327109793 
ctilde_basis_func: rank=2 ndens=2 mu0=0 mu=( 0  0 )
n=( 7  3 )
l=( 3  3 )
num_ms=4
< 0  0 >:  -184.082165506136334443  94.309139834897621313 
< 1  -1 >:  368.164331012272668886  -188.618279669795242626 
< 2  -2 >:  -368.164331012272668886  188.618279669795242626 
< 3  -3 >:  368.164331012272725729  -188.618279669795271047 
ctilde_basis_func: rank=2 ndens=2 mu0=0 mu=( 0  0 )
n=( 7  3 )
l=( 4  4 )
num_ms=5
< 0  0 >:  6.167401237962524263  -103.818825685344066301 
< 1  -1 >:  -12.334802475925050302  207.637651370688161023 
< 2  -2 >:  12.334802475925050302  -207.637651370688161023 
< 3  -3 >:  -12.334802475925048526  207.637651370688132602 
< 4  -4 >:  12.334802475925048526  -207.637651370688132602 
ctilde_basis_func: rank=2 ndens=2 mu0=0 mu=( 0  0 )
n=( 7  4 )
l=( 0  0 )
num_ms=1
< 0  0 >:  -150.680430460140343030  -10.675375900399817652 
ctilde_basis_func: rank=2 ndens=2 mu0=0 mu=( 0  0 )
n=( 7  4 )
l=( 1  1 )
num_ms=2
< 0  0 >:  20.235548309932138267  -0.001733444870576609 
< 1  -1 >:  -40.471096619864276533  0.003466889741153217 
ctilde_basis_func: rank=2 ndens=2 mu0=0 mu=( 0  0 )
n=( 7  4 )
l=( 2  2 )
num_ms=3
< 0  0 >:  -47.193248119315519773  181.896741204812485648 
< 1  -1 >:  94.386496238631039546  -363.793482409624971297 
< 2  -2 >:  -94.386496238631039546  363.793482409624971297 
ctilde_basis_func: rank=2 ndens=2 mu0=0 mu=( 0  0 )
n=( 7  4 )
l=( 3  3 )
num_ms=4
< 0  0 >:  100.203354452736888902  224.789713495166608936 
< 1  -1 >:  -200.406708905473777804  -449.579426990333217873 
< 2  -2 >:  200.406708905473777804  449.579426990333217873 
< 3  -3 >:  -200.406708905473806226  -449.579426990333331560 
ctilde_basis_func: rank=2 ndens=2 mu0=0 mu=( 0  0 )
n=( 7  4 )
l=( 4  4 )
num_ms=5
< 0  0 >:  -7.165870022756682722  84.543775848233963188 
< 1  -1 >:  14.331740045513367221  -169.087551696467954798 
< 2  -2 >:  -14.331740045513367221  169.087551696467954798 
< 3  -3 >:  14.331740045513365445  -169.087551696467926376 
< 4  -4 >:  -14.331740045513365445  169.087551696467926376 
ctilde_basis_func: rank=2 ndens=2 mu0=0 mu=( 0  0 )
n=( 7  5 )
l=( 0  0 )
num_ms=1
< 0  0 >:  93.871710070959125005  -1140.806227616564001437 
ctilde_basis_func: rank=2 ndens=2 mu0=0 mu=( 0  0 )
n=( 7  5 )
l=( 1  1 )
num_ms=2
< 0  0 >:  -22.081720074313771818  -499.848631097767224674 
< 1  -1 >:  44.163440148627543635  999.697262195534449347 
ctilde_basis_func: rank=2 ndens=2 mu0=0 mu=( 0  0 )
n=( 7  5 )
l=( 2  2 )
num_ms=3
< 0  0 >:  14.194464714810377970  -413.417503868428752867 
< 1  -1 >:  -28.388929429620755940  826.835007736857505733 
< 2  -2 >:  28.388929429620755940  -826.835007736857505733 
ctilde_basis_func: rank=2 ndens=2 mu0=0 mu=( 0  0 )
n=( 7  5 )
l=( 3  3 )
num_ms=4
< 0  0 >:  -37.253570148027655762  1.849081172211266777 
< 1  -1 >:  74.507140296055311524  -3.698162344422533554 
< 2  -2 >:  -74.507140296055311524  3.698162344422533554 
< 3  -3 >:  74.507140296055311524  -3.698162344422533998 
ctilde_basis_func: rank=2 ndens=2 mu0=0 mu=( 0  0 )
n=( 7  5 )
l=( 4  4 )
num_ms=5
< 0  0 >:  7.784765807660173564  -27.915070157724844790 
< 1  -1 >:  -15.569531615320350681  55.830140315449696686 
< 2  -2 >:  15.569531615320350681  -55.830140315449696686 
< 3  -3 >:  -15.569531615320347129  55.830140315449689581 
< 4  -4 >:  15.569531615320347129  -55.830140315449689581 
ctilde_basis_func: rank=2 ndens=2 mu0=0 mu=( 0  0 )
n=( 7  6 )
l=( 0  0 )
num_ms=1
< 0  0 >:  -57.865180810490407737  -338.877487322805507119 
ctilde_basis_func: rank=2 ndens=2 mu0=0 mu=( 0  0 )
n=( 7  6 )
l=( 1  1 )
num_ms=2
< 0  0 >:  16.727169903328217515  687.546070562256318226 
< 1  -1 >:  -33.454339806656435030  -1375.092141124512636452 
ctilde_basis_func: rank=2 ndens=2 mu0=0 mu=( 0  0 )
n=( 7  6 )
l=( 2  2 )
num_ms=3
< 0  0 >:  -7.293239893359979575  329.426062832884383624 
< 1  -1 >:  14.586479786719959151  -658.852125665768767249 
< 2  -2 >:  -14.586479786719959151  658.852125665768767249 
ctilde_basis_func: rank=2 ndens=2 mu0=0 mu=( 0  0 )
n=( 7  6 )
l=( 3  3 )
num_ms=4
< 0  0 >:  6.628684415315525769  -222.135491525096540499 
< 1  -1 >:  -13.257368830631051537  444.270983050193080999 
< 2  -2 >:  13.257368830631051537  -444.270983050193080999 
< 3  -3 >:  -13.257368830631053314  444.270983050193194686 
ctilde_basis_func: rank=2 ndens=2 mu0=0 mu=( 0  0 )
n=( 7  6 )
l=( 4  4 )
num_ms=5
< 0  0 >:  -3.865856515220658984  -140.124026180274427134 
< 1  -1 >:  7.731713030441319745  280.248052360548911111 
< 2  -2 >:  -7.731713030441319745  -280.248052360548911111 
< 3  -3 >:  7.731713030441317969  280.248052360548854267 
< 4  -4 >:  -7.731713030441317969  -280.248052360548854267 
ctilde_basis_func: rank=2 ndens=2 mu0=0 mu=( 0  0 )
n=( 7  7 )
l=( 0  0 )
num_ms=1
< 0  0 >:  5.761884846899106627  153.818844024035428220 
ctilde_basis_func: rank=2 ndens=2 mu0=0 mu=( 0  0 )
n=( 7  7 )
l=( 1  1 )
num_ms=2
< 0  0 >:  -1.140238287162105069  -195.544107646943331247 
< 1  -1 >:  2.280476574324210137  391.088215293886662494 
ctilde_basis_func: rank=2 ndens=2 mu0=0 mu=( 0  0 )
n=( 7  7 )
l=( 2  2 )
num_ms=3
< 0  0 >:  0.699374265597539124  -78.960588598783189695 
< 1  -1 >:  -1.398748531195078249  157.921177197566379391 
< 2  -2 >:  1.398748531195078249  -157.921177197566379391 
ctilde_basis_func: rank=2 ndens=2 mu0=0 mu=( 0  0 )
n=( 7  7 )
l=( 3  3 )
num_ms=4
< 0  0 >:  -1.082365278695789579  68.340017802218810061 
< 1  -1 >:  2.164730557391579158  -136.680035604437620123 
< 2  -2 >:  -2.164730557391579158  136.680035604437620123 
< 3  -3 >:  2.164730557391579602  -136.680035604437620123 
ctilde_basis_func: rank=2 ndens=2 mu0=0 mu=( 0  0 )
n=( 7  7 )
l=( 4  4 )
num_ms=5
< 0  0 >:  0.540904741268592226  38.473783034581899187 
< 1  -1 >:  -1.081809482537184675  -76.947566069163812585 
< 2  -2 >:  1.081809482537184675  76.947566069163812585 
< 3  -3 >:  -1.081809482537184453  -76.947566069163798375 
< 4  -4 >:  1.081809482537184453  76.947566069163798375 
ctilde_basis_func: rank=3 ndens=2 mu0=0 mu=( 0  0  0 )
n=( 1  1  1 )
l=( 0  0  0 )
num_ms=1
< 0  0  0 >:  -0.006169873808126875  -11.586430283014381715 
ctilde_basis_func: rank=3 ndens=2 mu0=0 mu=( 0  0  0 )
n=( 1  1  1 )
l=( 1  1  0 )
num_ms=2
< 0  0  0 >:  0.002148941792220331  -4.745854968183054190 
< 1  -1  0 >:  -0.004297883584440662  9.491709936366108380 
ctilde_basis_func: rank=3 ndens=2 mu0=0 mu=( 0  0  0 )
n=( 1  1  1 )
l=( 1  1  2 )
num_ms=4
< -1  -1  2 >:  -0.012696166736281034  2.332589245247106646 
< -1  0  1 >:  0.017955091188598792  -3.298779346074079299 
< -1  1  0 >:  -0.005183188365530896  0.952275571726523773 
< 0  0  0 >:  -0.005183188365530896  0.952275571726523773 
ctilde_basis_func: rank=3 ndens=2 mu0=0 mu=( 0  0  0 )
n=( 1  1  1 )
l=( 2  2  0 )
num_ms=3
< 0  0  0 >:  -0.000288690251302318  -4.445084147230560667 
< 1  -1  0 >:  0.000577380502604637  8.890168294461121334 
< 2  -2  0 >:  -0.000577380502604637  -8.890168294461121334 
ctilde_basis_func: rank=3 ndens=2 mu0=0 mu=( 0  0  0 )
n=( 1  1  1 )
l=( 2  2  2 )
num_ms=5
< -2  0  2 >:  0.001088757721833519  1.848954752856053263 
< -2  1  1 >:  -0.000888966957335728  -1.509665233997036005 
< -1  -1  2 >:  -0.000444483478667864  -0.754832616998518002 
< -1  0  1 >:  0.000544378860916760  0.924477376428026631 
< 0  0  0 >:  -0.000181459620305587  -0.308159125476008877 
ctilde_basis_func: rank=3 ndens=2 mu0=0 mu=( 0  0  0 )
n=( 2  1  1 )
l=( 0  0  0 )
num_ms=1
< 0  0  0 >:  0.190175158891148943  2600.244877156515940442 
ctilde_basis_func: rank=3 ndens=2 mu0=0 mu=( 0  0  0 )
n=( 2  1  1 )
l=( 0  1  1 )
num_ms=2
< 0  0  0 >:  -1.638139849933818448  3.672181317261131728 
< 0  1  -1 >:  3.276279699867636896  -7.344362634522263455 
ctilde_basis_func: rank=3 ndens=2 mu0=0 mu=( 0  0  0 )
n=( 2  1  1 )
l=( 0  2  2 )
num_ms=3
< 0  0  0 >:  0.197951826917008605  -249.541187177608833281 
< 0  1  -1 >:  -0.395903653834017211  499.082374355217666562 
< 0  2  -2 >:  0.395903653834017211  -499.082374355217666562 
ctilde_basis_func: rank=3 ndens=2 mu0=0 mu=( 0  0  0 )
n=( 2  1  1 )
l=( 1  1  0 )
num_ms=2
< 0  0  0 >:  0.427981086980961101  892.119556748535501356 
< 1  -1  0 >:  -0.855962173961922201  -1784.239113497071002712 
ctilde_basis_func: rank=3 ndens=2 mu0=0 mu=( 0  0  0 )
n=( 2  1  1 )
l=( 1  2  1 )
num_ms=5
< 0  0  0 >:  0.249794733741566188  175.579974494331111146 
< 0  1  -1 >:  -0.432657170303532401  -304.113436615829073162 
< 1  -2  1 >:  0.611869638101221525  430.081346561996099354 
< 1  -1  0 >:  -0.432657170303532401  -304.113436615829073162 
< 1  0  -1 >:  0.249794733741566188  175.579974494331111146 
ctilde_basis_func: rank=3 ndens=2 mu0=0 mu=( 0  0  0 )
n=( 1  1  2 )
l=( 1  1  2 )
num_ms=4
< -1  -1  2 >:  0.855369666992209399  -150.104675972278073459 
< -1  0  1 >:  -1.209675383902940382  212.280068535614503844 
< -1  1  0 >:  0.349203204264213307  -61.279977356314624615 
< 0  0  0 >:  0.349203204264213307  -61.279977356314624615 
ctilde_basis_func: rank=3 ndens=2 mu0=0 mu=( 0  0  0 )
n=( 2  1  1 )
l=( 2  2  0 )
num_ms=3
< 0  0  0 >:  0.613534765457307008  -706.998505325156997969 
< 1  -1  0 >:  -1.227069530914614015  1413.997010650313995939 
< 2  -2  0 >:  1.227069530914614015  -1413.997010650313995939 
ctilde_basis_func: rank=3 ndens=2 mu0=0 mu=( 0  0  0 )
n=( 1  1  2 )
l=( 2  2  2 )
num_ms=7
< -2  0  2 >:  0.619815234768183787  -795.893230020591545326 
< -2  1  1 >:  -0.759115529992706706  974.766151643005741789 
< -2  2  0 >:  0.309907617384091894  -397.946615010295772663 
< -1  -1  2 >:  -0.379557764996353353  487.383075821502870895 
< -1  0  1 >:  0.309907617384091894  -397.946615010295772663 
< -1  1  0 >:  0.154953808692045947  -198.973307505147886332 
< 0  0  0 >:  -0.154953808692045947  198.973307505147886332 
ctilde_basis_func: rank=3 ndens=2 mu0=0 mu=( 0  0  0 )
n=( 2  2  1 )
l=( 0  0  0 )
num_ms=1
< 0  0  0 >:  -88.345639447508006015  6.514053568581772424 
ctilde_basis_func: rank=3 ndens=2 mu0=0 mu=( 0  0  0 )
n=( 2  2  1 )
l=( 1  0  1 )
num_ms=2
< 0  0  0 >:  30.489295044098952303  0.046429801098932272 
< 1  0  -1 >:  -60.978590088197904606  -0.092859602197864544 
ctilde_basis_func: rank=3 ndens=2 mu0=0 mu=( 0  0  0 )
n=( 2  2  1 )
l=( 1  1  0 )
num_ms=2
< 0  0  0 >:  -22.953388452557508259  -0.009997527340689840 
< 1  -1  0 >:  45.906776905115016518  0.019995054681379680 
ctilde_basis_func: rank=3 ndens=2 mu0=0 mu=( 0  0  0 )
n=( 1  2  2 )
l=( 2  1  1 )
num_ms=4
< -2  1  1 >:  -21.703493210369479982  -0.009321409961065790 
< -1  0  1 >:  30.693374448976904034  0.013182464387378906 
< 0  -1  1 >:  -8.860414000227397224  -0.003805449681317933 
< 0  0  0 >:  -8.860414000227397224  -0.003805449681317933 
ctilde_basis_func: rank=3 ndens=2 mu0=0 mu=( 0  0  0 )
n=( 2  2  1 )
l=( 2  0  2 )
num_ms=3
< 0  0  0 >:  6.855612602634185038  -0.037779157462387039 
< 1  0  -1 >:  -13.711225205268370075  0.075558314924774078 
< 2  0  -2 >:  13.711225205268370075  -0.075558314924774078 
ctilde_basis_func: rank=3 ndens=2 mu0=0 mu=( 0  0  0 )
n=( 2  2  1 )
l=( 2  1  1 )
num_ms=5
< 0  0  0 >:  35.140838370805418833  0.009639099329996464 
< 0  1  -1 >:  35.140838370805418833  0.009639099329996464 
< 1  -1  0 >:  -60.865717478800910101  -0.016695409778756998 
< 1  0  -1 >:  -60.865717478800910101  -0.016695409778756998 
< 2  -1  -1 >:  86.077123142089405405  0.023610874938494543 
ctilde_basis_func: rank=3 ndens=2 mu0=0 mu=( 0  0  0 )
n=( 2  2  1 )
l=( 2  2  0 )
num_ms=3
< 0  0  0 >:  -23.044509208985516580  702.186217914793701311 
< 1  -1  0 >:  46.089018417971033159  -1404.372435829587402623 
< 2  -2  0 >:  -46.089018417971033159  1404.372435829587402623 
ctilde_basis_func: rank=3 ndens=2 mu0=0 mu=( 0  0  0 )
n=( 1  2  2 )
l=( 2  2  2 )
num_ms=8
< -2  0  2 >:  19.782399387673720526  -0.024229244132486331 
< -2  1  1 >:  -12.114196096936749925  0.014837321244478691 
< -1  -1  2 >:  -12.114196096936749925  0.014837321244478691 
< -1  0  1 >:  9.891199693836860263  -0.012114622066243166 
< 0  -2  2 >:  9.891199693836860263  -0.012114622066243166 
< 0  -1  1 >:  4.945599846918430131  -0.006057311033121583 
< 0  0  0 >:  -4.945599846918430131  0.006057311033121583 
< 1  -2  1 >:  -12.114196096936749925  0.014837321244478691 
ctilde_basis_func: rank=3 ndens=2 mu0=0 mu=( 0  0  0 )
n=( 2  2  2 )
l=( 0  0  0 )
num_ms=1
< 0  0  0 >:  -8.120774821642910979  -0.604572869321449158 
ctilde_basis_func: rank=3 ndens=2 mu0=0 mu=( 0  0  0 )
n=( 2  2  2 )
l=( 1  1  0 )
num_ms=2
< 0  0  0 >:  -100.419526054027414830  -0.039621658055171115 
< 1  -1  0 >:  200.839052108054829660  0.079243316110342230 
ctilde_basis_func: rank=3 ndens=2 mu0=0 mu=( 0  0  0 )
n=( 2  2  2 )
l=( 1  1  2 )
num_ms=4
< -1  -1  2 >:  -144.564648404220292832  -0.002715795313559736 
< -1  0  1 >:  204.445286412946359178  0.003840714565065470 
< -1  1  0 >:  -59.018270572532358642  -0.001108718794010533 
< 0  0  0 >:  -59.018270572532358642  -0.001108718794010533 
ctilde_basis_func: rank=3 ndens=2 mu0=0 mu=( 0  0  0 )
n=( 2  2  2 )
l=( 2  2  0 )
num_ms=3
< 0  0  0 >:  2.016840224700537920  -0.016064210537077184 
< 1  -1  0 >:  -4.033680449401075840  0.032128421074154367 
< 2  -2  0 >:  4.033680449401075840  -0.032128421074154367 
ctilde_basis_func: rank=3 ndens=2 mu0=0 mu=( 0  0  0 )
n=( 2  2  2 )
l=( 2  2  2 )
num_ms=5
< -2  0  2 >:  60.352156244133858820  0.071332650712493562 
< -2  1  1 >:  -49.277329224951202491  -0.058242865415262718 
< -1  -1  2 >:  -24.638664612475601245  -0.029121432707631359 
< -1  0  1 >:  30.176078122066929410  0.035666325356246781 
< 0  0  0 >:  -10.058692707355643137  -0.011888775118748928 
ctilde_basis_func: rank=3 ndens=2 mu0=0 mu=( 0  0  0 )
n=( 3  1  1 )
l=( 0  0  0 )
num_ms=1
< 0  0  0 >:  -0.350356887191468180  -1391.555343375054917487 
ctilde_basis_func: rank=3 ndens=2 mu0=0 mu=( 0  0  0 )
n=( 3  1  1 )
l=( 0  1  1 )
num_ms=2
< 0  0  0 >:  0.784252070978234017  8.310383182980711325 
< 0  1  -1 >:  -1.568504141956468034  -16.620766365961422650 
ctilde_basis_func: rank=3 ndens=2 mu0=0 mu=( 0  0  0 )
n=( 3  1  1 )
l=( 0  2  2 )
num_ms=3
< 0  0  0 >:  -0.085739468431421897  116.809558702696534738 
< 0  1  -1 >:  0.171478936862843795  -233.619117405393069475 
< 0  2  -2 >:  -0.171478936862843795  233.619117405393069475 
ctilde_basis_func: rank=3 ndens=2 mu0=0 mu=( 0  0  0 )
n=( 3  1  1 )
l=( 1  1  0 )
num_ms=2
< 0  0  0 >:  -0.201632461635105426  -489.652602454759119155 
< 1  -1  0 >:  0.403264923270210851  979.305204909518238310 
ctilde_basis_func: rank=3 ndens=2 mu0=0 mu=( 0  0  0 )
n=( 3  1  1 )
l=( 1  2  1 )
num_ms=5
< 0  0  0 >:  -0.111797776939660046  -76.298012059662852380 
< 0  1  -1 >:  0.193639429832743376  132.152033403838970571 
< 1  -2  1 >:  -0.273847507879659002  -186.891197934891408750 
< 1  -1  0 >:  0.193639429832743376  132.152033403838970571 
< 1  0  -1 >:  -0.111797776939660046  -76.298012059662852380 
ctilde_basis_func: rank=3 ndens=2 mu0=0 mu=( 0  0  0 )
n=( 1  1  3 )
l=( 1  1  2 )
num_ms=4
< -1  -1  2 >:  -0.425154756507838683  63.545787713036908428 
< -1  0  1 >:  0.601259622760816348  -89.867314815458371413 
< -1  1  0 >:  -0.173568702526905067  25.942459200026867450 
< 0  0  0 >:  -0.173568702526905067  25.942459200026867450 
ctilde_basis_func: rank=3 ndens=2 mu0=0 mu=( 0  0  0 )
n=( 3  1  1 )
l=( 2  2  0 )
num_ms=3
< 0  0  0 >:  -0.275590022005354929  202.570952851628788949 
< 1  -1  0 >:  0.551180044010709858  -405.141905703257577898 
< 2  -2  0 >:  -0.551180044010709858  405.141905703257577898 
ctilde_basis_func: rank=3 ndens=2 mu0=0 mu=( 0  0  0 )
n=( 1  1  3 )
l=( 2  2  2 )
num_ms=7
< -2  0  2 >:  -0.253875486668399430  370.600282042532228388 
< -2  1  1 >:  0.310932700269165918  -453.890794767867703285 
< -2  2  0 >:  -0.126937743334199715  185.300141021266114194 
< -1  -1  2 >:  0.155466350134582959  -226.945397383933851643 
< -1  0  1 >:  -0.126937743334199715  185.300141021266114194 
< -1  1  0 >:  -0.063468871667099858  92.650070510633057097 
< 0  0  0 >:  0.063468871667099858  -92.650070510633057097 
ctilde_basis_func: rank=3 ndens=2 mu0=0 mu=( 0  0  0 )
n=( 3  2  1 )
l=( 0  0  0 )
num_ms=1
< 0  0  0 >:  79.118139654472301459  21.113359682288738384 
ctilde_basis_func: rank=3 ndens=2 mu0=0 mu=( 0  0  0 )
n=( 3  2  1 )
l=( 0  1  1 )
num_ms=2
< 0  0  0 >:  -18.365341529297602108  -0.005420549421849277 
< 0  1  -1 >:  36.730683058595204216  0.010841098843698554 
ctilde_basis_func: rank=3 ndens=2 mu0=0 mu=( 0  0  0 )
n=( 3  2  1 )
l=( 0  2  2 )
num_ms=3
< 0  0  0 >:  -5.306568351511208981  0.010189588714316172 
< 0  1  -1 >:  10.613136703022417962  -0.020379177428632343 
< 0  2  -2 >:  -10.613136703022417962  0.020379177428632343 
ctilde_basis_func: rank=3 ndens=2 mu0=0 mu=( 0  0  0 )
n=( 3  2  1 )
l=( 1  0  1 )
num_ms=2
< 0  0  0 >:  -17.199081849607765093  -118.596476168812785090 
< 1  0  -1 >:  34.398163699215530187  237.192952337625570181 
ctilde_basis_func: rank=3 ndens=2 mu0=0 mu=( 0  0  0 )
n=( 3  2  1 )
l=( 1  1  0 )
num_ms=2
< 0  0  0 >:  19.125589762297799723  -5.720792896830922736 
< 1  -1  0 >:  -38.251179524595599446  11.441585793661845472 
ctilde_basis_func: rank=3 ndens=2 mu0=0 mu=( 0  0  0 )
n=( 3  2  1 )
l=( 1  1  2 )
num_ms=5
< 0  0  0 >:  11.418733034146359984  -135.878074942898905419 
< 0  1  -1 >:  -19.777825773206622273  235.347729435752512472 
< 1  -1  0 >:  11.418733034146359984  -135.878074942898905419 
< 1  0  -1 >:  -19.777825773206622273  235.347729435752512472 
< 1  1  -2 >:  27.970069442720948416  -332.831950841754860448 
ctilde_basis_func: rank=3 ndens=2 mu0=0 mu=( 0  0  0 )
n=( 3  2  1 )
l=( 1  2  1 )
num_ms=5
< 0  0  0 >:  -17.184650447628548875  0.001522910954203881 
< 0  1  -1 >:  29.764687685603895773  -0.002637759148084322 
< 1  -2  1 >:  -42.093625004780484744  0.003730354761494550 
< 1  -1  0 >:  29.764687685603895773  -0.002637759148084322 
< 1  0  -1 >:  -17.184650447628548875  0.001522910954203881 
ctilde_basis_func: rank=3 ndens=2 mu0=0 mu=( 0  0  0 )
n=( 3  2  1 )
l=( 2  0  2 )
num_ms=3
< 0  0  0 >:  -4.808194865501445037  -0.065526357086038489 
< 1  0  -1 >:  9.616389731002890073  0.131052714172076978 
< 2  0  -2 >:  -9.616389731002890073  -0.131052714172076978 
ctilde_basis_func: rank=3 ndens=2 mu0=0 mu=( 0  0  0 )
n=( 3  2  1 )
l=( 2  1  1 )
num_ms=5
< 0  0  0 >:  -17.352049920334756905  -0.004043024869288997 
< 0  1  -1 >:  -17.352049920334756905  -0.004043024869288997 
< 1  -1  0 >:  30.054632077491284292  0.007002724489873061 
< 1  0  -1 >:  30.054632077491284292  0.007002724489873061 
< 2  -1  -1 >:  -42.503668296121645653  -0.009903347947140697 
ctilde_basis_func: rank=3 ndens=2 mu0=0 mu=( 0  0  0 )
n=( 3  2  1 )
l=( 2  2  0 )
num_ms=3
< 0  0  0 >:  18.658668891471993589  772.366146839083967279 
< 1  -1  0 >:  -37.317337782943987179  -1544.732293678167934559 
< 2  -2  0 >:  37.317337782943987179  1544.732293678167934559 
ctilde_basis_func: rank=3 ndens=2 mu0=0 mu=( 0  0  0 )
n=( 3  2  1 )
l=( 2  2  2 )
num_ms=10
< 0  0  0 >:  6.083796402528150793  0.003083028933960885 
< 0  1  -1 >:  -6.083796402528150793  -0.003083028933960885 
< 0  2  -2 >:  -12.167592805056301586  -0.006166057867921770 
< 1  -2  1 >:  14.902196885173902174  0.007551847750440943 
< 1  -1  0 >:  -6.083796402528150793  -0.003083028933960885 
< 1  0  -1 >:  -6.083796402528150793  -0.003083028933960885 
< 1  1  -2 >:  14.902196885173902174  0.007551847750440943 
< 2  -2  0 >:  -12.167592805056301586  -0.006166057867921770 
< 2  -1  -1 >:  14.902196885173902174  0.007551847750440943 
< 2  0  -2 >:  -12.167592805056301586  -0.006166057867921770 
ctilde_basis_func: rank=3 ndens=2 mu0=0 mu=( 0  0  0 )
n=( 3  2  2 )
l=( 0  0  0 )
num_ms=1
< 0  0  0 >:  530.913583922630095913  -2.234017938707641981 
ctilde_basis_func: rank=3 ndens=2 mu0=0 mu=( 0  0  0 )
n=( 3  2  2 )
l=( 0  1  1 )
num_ms=2
< 0  0  0 >:  14.289787554838714101  0.016907835233403723 
< 0  1  -1 >:  -28.579575109677428202  -0.033815670466807446 
ctilde_basis_func: rank=3 ndens=2 mu0=0 mu=( 0  0  0 )
n=( 3  2  2 )
l=( 0  2  2 )
num_ms=3
< 0  0  0 >:  2.583880910958655797  -0.069822499349585301 
< 0  1  -1 >:  -5.167761821917311593  0.139644998699170603 
< 0  2  -2 >:  5.167761821917311593  -0.139644998699170603 
ctilde_basis_func: rank=3 ndens=2 mu0=0 mu=( 0  0  0 )
n=( 3  2  2 )
l=( 1  1  0 )
num_ms=2
< 0  0  0 >:  131.657770868229192729  -0.732661995803010391 
< 1  -1  0 >:  -263.315541736458385458  1.465323991606020781 
ctilde_basis_func: rank=3 ndens=2 mu0=0 mu=( 0  0  0 )
n=( 3  2  2 )
l=( 1  2  1 )
num_ms=5
< 0  0  0 >:  24.902190166391825699  -0.000901736137689032 
< 0  1  -1 >:  -43.131858587932718763  0.001561852805498328 
< 1  -2  1 >:  60.997659385412909216  -0.002208793419966203 
< 1  -1  0 >:  -43.131858587932718763  0.001561852805498328 
< 1  0  -1 >:  24.902190166391825699  -0.000901736137689032 
ctilde_basis_func: rank=3 ndens=2 mu0=0 mu=( 0  0  0 )
n=( 2  2  3 )
l=( 1  1  2 )
num_ms=4
< -1  -1  2 >:  53.868239814804930177  -0.004303291306746022 
< -1  0  1 >:  -76.181195327263466766  0.006085772928842462 
< -1  1  0 >:  21.991616814691514747  -0.001756811319347066 
< 0  0  0 >:  21.991616814691514747  -0.001756811319347066 
ctilde_basis_func: rank=3 ndens=2 mu0=0 mu=( 0  0  0 )
n=( 3  2  2 )
l=( 2  2  0 )
num_ms=3
< 0  0  0 >:  9.889414428147057734  -4.031199857418362953 
< 1  -1  0 >:  -19.778828856294115468  8.062399714836725906 
< 2  -2  0 >:  19.778828856294115468  -8.062399714836725906 
ctilde_basis_func: rank=3 ndens=2 mu0=0 mu=( 0  0  0 )
n=( 2  2  3 )
l=( 2  2  2 )
num_ms=7
< -2  0  2 >:  -41.382813844336240550  0.212991862961074613 
< -2  1  1 >:  50.683389019603652059  -0.260860691809716272 
< -2  2  0 >:  -20.691406922168120275  0.106495931480537306 
< -1  -1  2 >:  25.341694509801826030  -0.130430345904858136 
< -1  0  1 >:  -20.691406922168120275  0.106495931480537306 
< -1  1  0 >:  -10.345703461084060137  0.053247965740268653 
< 0  0  0 >:  10.345703461084060137  -0.053247965740268653 
ctilde_basis_func: rank=3 ndens=2 mu0=0 mu=( 0  0  0 )
n=( 3  3  1 )
l=( 0  0  0 )
num_ms=1
< 0  0  0 >:  -18.220437065916826214  -1663.095068719809887625 
ctilde_basis_func: rank=3 ndens=2 mu0=0 mu=( 0  0  0 )
n=( 3  3  1 )
l=( 1  0  1 )
num_ms=2
< 0  0  0 >:  10.938148179855190278  -822.086732674395875620 
< 1  0  -1 >:  -21.876296359710380557  1644.173465348791751239 
ctilde_basis_func: rank=3 ndens=2 mu0=0 mu=( 0  0  0 )
n=( 3  3  1 )
l=( 1  1  0 )
num_ms=2
< 0  0  0 >:  -3.361083574589592171  -77.319686830923487264 
< 1  -1  0 >:  6.722167149179184342  154.639373661846974528 
ctilde_basis_func: rank=3 ndens=2 mu0=0 mu=( 0  0  0 )
n=( 1  3  3 )
l=( 2  1  1 )
num_ms=4
< -2  1  1 >:  -8.177560971890633468  -0.053552485670308278 
< -1  0  1 >:  11.564817633580641854  0.075734651533740802 
< 0  -1  1 >:  -3.338475286938356934  -0.021862710724993874 
< 0  0  0 >:  -3.338475286938356934  -0.021862710724993874 
ctilde_basis_func: rank=3 ndens=2 mu0=0 mu=( 0  0  0 )
n=( 3  3  1 )
l=( 2  0  2 )
num_ms=3
< 0  0  0 >:  3.363430522385767230  -89.812212580777128323 
< 1  0  -1 >:  -6.726861044771534459  179.624425161554256647 
< 2  0  -2 >:  6.726861044771534459  -179.624425161554256647 
ctilde_basis_func: rank=3 ndens=2 mu0=0 mu=( 0  0  0 )
n=( 3  3  1 )
l=( 2  1  1 )
num_ms=5
< 0  0  0 >:  8.807734633712644978  -222.413429413782182564 
< 0  1  -1 >:  8.807734633712644978  -222.413429413782182564 
< 1  -1  0 >:  -15.255443885174356566  385.231360030304870179 
< 1  0  -1 >:  -15.255443885174356566  385.231360030304870179 
< 2  -1  -1 >:  21.574455642435278691  -544.799414006289907775 
ctilde_basis_func: rank=3 ndens=2 mu0=0 mu=( 0  0  0 )
n=( 3  3  1 )
l=( 2  2  0 )
num_ms=3
< 0  0  0 >:  -3.366541373326102260  -1288.116951062494081270 
< 1  -1  0 >:  6.733082746652204520  2576.233902124988162541 
< 2  -2  0 >:  -6.733082746652204520  -2576.233902124988162541 
ctilde_basis_func: rank=3 ndens=2 mu0=0 mu=( 0  0  0 )
n=( 1  3  3 )
l=( 2  2  2 )
num_ms=8
< -2  0  2 >:  7.472679802072174304  -564.226443734733379642 
< -2  1  1 >:  -4.576063131569704900  345.516721633814825054 
< -1  -1  2 >:  -4.576063131569704900  345.516721633814825054 
< -1  0  1 >:  3.736339901036087152  -282.113221867366689821 
< 0  -2  2 >:  3.736339901036087152  -282.113221867366689821 
< 0  -1  1 >:  1.868169950518043576  -141.056610933683344911 
< 0  0  0 >:  -1.868169950518043576  141.056610933683344911 
< 1  -2  1 >:  -4.576063131569704900  345.516721633814825054 
ctilde_basis_func: rank=3 ndens=2 mu0=0 mu=( 0  0  0 )
n=( 3  3  2 )
l=( 0  0  0 )
num_ms=1
< 0  0  0 >:  -612.015629758628051604  -0.837953508317990092 
ctilde_basis_func: rank=3 ndens=2 mu0=0 mu=( 0  0  0 )
n=( 3  3  2 )
l=( 1  0  1 )
num_ms=2
< 0  0  0 >:  -7.740397757829431846  694.933939276636465365 
< 1  0  -1 >:  15.480795515658863692  -1389.867878553272930731 
ctilde_basis_func: rank=3 ndens=2 mu0=0 mu=( 0  0  0 )
n=( 3  3  2 )
l=( 1  1  0 )
num_ms=2
< 0  0  0 >:  -34.838542233608251308  -1857.261103347778771422 
< 1  -1  0 >:  69.677084467216502617  3714.522206695557542844 
ctilde_basis_func: rank=3 ndens=2 mu0=0 mu=( 0  0  0 )
n=( 2  3  3 )
l=( 2  1  1 )
num_ms=4
< -2  1  1 >:  -1.935511804426889304  556.166663187535164070 
< -1  0  1 >:  2.737227043953728511  -786.538438019601471751 
< 0  -1  1 >:  -0.790169385329904328  227.054089459302304022 
< 0  0  0 >:  -0.790169385329904328  227.054089459302304022 
ctilde_basis_func: rank=3 ndens=2 mu0=0 mu=( 0  0  0 )
n=( 3  3  2 )
l=( 2  0  2 )
num_ms=3
< 0  0  0 >:  -1.137921330920674601  319.009043594109016340 
< 1  0  -1 >:  2.275842661841349202  -638.018087188218032679 
< 2  0  -2 >:  -2.275842661841349202  638.018087188218032679 
ctilde_basis_func: rank=3 ndens=2 mu0=0 mu=( 0  0  0 )
n=( 3  3  2 )
l=( 2  1  1 )
num_ms=5
< 0  0  0 >:  -6.651407284013720833  -0.002955783185870551 
< 0  1  -1 >:  -6.651407284013720833  -0.002955783185870551 
< 1  -1  0 >:  11.520575357745476808  0.005119566654085596 
< 1  0  -1 >:  11.520575357745476808  0.005119566654085596 
< 2  -1  -1 >:  -16.292553917264925190  -0.007240160595680899 
ctilde_basis_func: rank=3 ndens=2 mu0=0 mu=( 0  0  0 )
n=( 3  3  2 )
l=( 2  2  0 )
num_ms=3
< 0  0  0 >:  -7.188795630717201846  -1345.974886365422889867 
< 1  -1  0 >:  14.377591261434403691  2691.949772730845779733 
< 2  -2  0 >:  -14.377591261434403691  -2691.949772730845779733 
ctilde_basis_func: rank=3 ndens=2 mu0=0 mu=( 0  0  0 )
n=( 2  3  3 )
l=( 2  2  2 )
num_ms=8
< -2  0  2 >:  10.110843537946276882  1.787906005365172524 
< -2  1  1 >:  -6.191601884271245915  -1.094864355300608771 
< -1  -1  2 >:  -6.191601884271245915  -1.094864355300608771 
< -1  0  1 >:  5.055421768973138441  0.893953002682586262 
< 0  -2  2 >:  5.055421768973138441  0.893953002682586262 
< 0  -1  1 >:  2.527710884486569221  0.446976501341293131 
< 0  0  0 >:  -2.527710884486569221  -0.446976501341293131 
< 1  -2  1 >:  -6.191601884271245915  -1.094864355300608771 
ctilde_basis_func: rank=3 ndens=2 mu0=0 mu=( 0  0  0 )
n=( 3  3  3 )
l=( 0  0  0 )
num_ms=1
< 0  0  0 >:  169.919814823869302245  753.634126316236574894 
ctilde_basis_func: rank=3 ndens=2 mu0=0 mu=( 0  0  0 )
n=( 3  3  3 )
l=( 1  1  0 )
num_ms=2
< 0  0  0 >:  -3.641875163542871441  4598.833953842397932021 
< 1  -1  0 >:  7.283750327085742882  -9197.667907684795864043 
ctilde_basis_func: rank=3 ndens=2 mu0=0 mu=( 0  0  0 )
n=( 3  3  3 )
l=( 1  1  2 )
num_ms=4
< -1  -1  2 >:  -2.236489611055311411  297.782354733251281687 
< -1  0  1 >:  3.162873940060949352  -421.127844699159936681 
< -1  1  0 >:  -0.913043060353520786  121.569137250153460172 
< 0  0  0 >:  -0.913043060353520786  121.569137250153460172 
ctilde_basis_func: rank=3 ndens=2 mu0=0 mu=( 0  0  0 )
n=( 3  3  3 )
l=( 2  2  0 )
num_ms=3
< 0  0  0 >:  -0.054416829389670955  633.577723697708393047 
< 1  -1  0 >:  0.108833658779341910  -1267.155447395416786094 
< 2  -2  0 >:  -0.108833658779341910  1267.155447395416786094 
ctilde_basis_func: rank=3 ndens=2 mu0=0 mu=( 0  0  0 )
n=( 3  3  3 )
l=( 2  2  2 )
num_ms=5
< -2  0  2 >:  0.317418630732370421  836.450199149744548777 
< -2  1  1 >:  -0.259171226715740832  -682.958727722081903266 
< -1  -1  2 >:  -0.129585613357870416  -341.479363861040951633 
< -1  0  1 >:  0.158709315366185211  418.225099574872274388 
< 0  0  0 >:  -0.052903105122061735  -139.408366524957415322 
ctilde_basis_func: rank=3 ndens=2 mu0=0 mu=( 0  0  0 )
n=( 4  1  1 )
l=( 0  0  0 )
num_ms=1
< 0  0  0 >:  0.185056241479031519  299.805017995307991896 
ctilde_basis_func: rank=3 ndens=2 mu0=0 mu=( 0  0  0 )
n=( 4  1  1 )
l=( 0  1  1 )
num_ms=2
< 0  0  0 >:  -0.180962517776289078  -1.721833137803630898 
< 0  1  -1 >:  0.361925035552578156  3.443666275607261795 
ctilde_basis_func: rank=3 ndens=2 mu0=0 mu=( 0  0  0 )
n=( 4  1  1 )
l=( 0  2  2 )
num_ms=3
< 0  0  0 >:  0.018665610095790038  -26.677506643740446890 
< 0  1  -1 >:  -0.037331220191580076  53.355013287480893780 
< 0  2  -2 >:  0.037331220191580076  -53.355013287480893780 
ctilde_basis_func: rank=3 ndens=2 mu0=0 mu=( 0  0  0 )
n=( 4  1  1 )
l=( 1  1  0 )
num_ms=2
< 0  0  0 >:  0.029892652265986600  142.007971865934251809 
< 1  -1  0 >:  -0.059785304531973199  -284.015943731868503619 
ctilde_basis_func: rank=3 ndens=2 mu0=0 mu=( 0  0  0 )
n=( 4  1  1 )
l=( 1  2  1 )
num_ms=5
< 0  0  0 >:  0.030920977679000820  11.936126484778016632 
< 0  1  -1 >:  -0.053556704359732595  -20.673977517204026100 
< 1  -2  1 >:  0.075740617661540111  29.237419393026385706 
< 1  -1  0 >:  -0.053556704359732595  -20.673977517204026100 
< 1  0  -1 >:  0.030920977679000820  11.936126484778016632 
ctilde_basis_func: rank=3 ndens=2 mu0=0 mu=( 0  0  0 )
n=( 1  1  4 )
l=( 1  1  2 )
num_ms=4
< -1  -1  2 >:  0.120523524566184301  -13.404651485154150947 
< -1  0  1 >:  -0.170446003026504728  18.957039929189647864 
< -1  1  0 >:  0.049203522864824135  -5.472426053078064179 
< 0  0  0 >:  0.049203522864824135  -5.472426053078064179 
ctilde_basis_func: rank=3 ndens=2 mu0=0 mu=( 0  0  0 )
n=( 4  1  1 )
l=( 2  2  0 )
num_ms=3
< 0  0  0 >:  0.057484464860337869  11.482307098238807797 
< 1  -1  0 >:  -0.114968929720675739  -22.964614196477615593 
< 2  -2  0 >:  0.114968929720675739  22.964614196477615593 
ctilde_basis_func: rank=3 ndens=2 mu0=0 mu=( 0  0  0 )
n=( 1  1  4 )
l=( 2  2  2 )
num_ms=7
< -2  0  2 >:  0.049501686693128523  -90.742519979896158588 
< -2  1  1 >:  -0.060626936902642418  111.136435962526604726 
< -2  2  0 >:  0.024750843346564261  -45.371259989948079294 
< -1  -1  2 >:  -0.030313468451321209  55.568217981263302363 
< -1  0  1 >:  0.024750843346564261  -45.371259989948079294 
< -1  1  0 >:  0.012375421673282131  -22.685629994974039647 
< 0  0  0 >:  -0.012375421673282131  22.685629994974039647 
ctilde_basis_func: rank=3 ndens=2 mu0=0 mu=( 0  0  0 )
n=( 4  2  1 )
l=( 0  0  0 )
num_ms=1
< 0  0  0 >:  -16.818236540630753240  748.070053982380727575 
ctilde_basis_func: rank=3 ndens=2 mu0=0 mu=( 0  0  0 )
n=( 4  2  1 )
l=( 0  1  1 )
num_ms=2
< 0  0  0 >:  4.879672723220752850  899.653993715112392238 
< 0  1  -1 >:  -9.759345446441505700  -1799.307987430224784475 
ctilde_basis_func: rank=3 ndens=2 mu0=0 mu=( 0  0  0 )
n=( 4  2  1 )
l=( 0  2  2 )
num_ms=3
< 0  0  0 >:  2.018673038241632245  -470.723313521032309836 
< 0  1  -1 >:  -4.037346076483264490  941.446627042064619673 
< 0  2  -2 >:  4.037346076483264490  -941.446627042064619673 
ctilde_basis_func: rank=3 ndens=2 mu0=0 mu=( 0  0  0 )
n=( 4  2  1 )
l=( 1  0  1 )
num_ms=2
< 0  0  0 >:  7.242386401519471661  -17.128992657754235296 
< 1  0  -1 >:  -14.484772803038943323  34.257985315508470592 
ctilde_basis_func: rank=3 ndens=2 mu0=0 mu=( 0  0  0 )
n=( 4  2  1 )
l=( 1  1  0 )
num_ms=2
< 0  0  0 >:  -3.906633572080879802  181.203497225744740717 
< 1  -1  0 >:  7.813267144161759603  -362.406994451489481435 
ctilde_basis_func: rank=3 ndens=2 mu0=0 mu=( 0  0  0 )
n=( 4  2  1 )
l=( 1  1  2 )
num_ms=5
< 0  0  0 >:  -3.267125460823323113  -244.946259596167720929 
< 0  1  -1 >:  5.658827292847877999  424.259366744518160885 
< 1  -1  0 >:  -3.267125460823323113  -244.946259596167720929 
< 1  0  -1 >:  5.658827292847877999  424.259366744518160885 
< 1  1  -2 >:  -8.002790304672494415  -599.993350413918506092 
ctilde_basis_func: rank=3 ndens=2 mu0=0 mu=( 0  0  0 )
n=( 4  2  1 )
l=( 1  2  1 )
num_ms=5
< 0  0  0 >:  3.213960819224408461  -0.000090235169121358 
< 0  1  -1 >:  -5.566743432432367022  0.000156291897547763 
< 1  -2  1 >:  7.872564060397209573  -0.000221030121201072 
< 1  -1  0 >:  -5.566743432432367022  0.000156291897547763 
< 1  0  -1 >:  3.213960819224408461  -0.000090235169121358 
ctilde_basis_func: rank=3 ndens=2 mu0=0 mu=( 0  0  0 )
n=( 4  2  1 )
l=( 2  0  2 )
num_ms=3
< 0  0  0 >:  1.695231001788009007  304.571628984460630818 
< 1  0  -1 >:  -3.390462003576018013  -609.143257968921261636 
< 2  0  -2 >:  3.390462003576018013  609.143257968921261636 
ctilde_basis_func: rank=3 ndens=2 mu0=0 mu=( 0  0  0 )
n=( 4  2  1 )
l=( 2  1  1 )
num_ms=5
< 0  0  0 >:  2.798069936745215536  502.347067699007482133 
< 0  1  -1 >:  2.798069936745215536  502.347067699007482133 
< 1  -1  0 >:  -4.846399293573747435  -870.090644287923282718 
< 1  0  -1 >:  -4.846399293573747435  -870.090644287923282718 
< 2  -1  -1 >:  6.853843609647381818  1230.493989645925694276 
ctilde_basis_func: rank=3 ndens=2 mu0=0 mu=( 0  0  0 )
n=( 4  2  1 )
l=( 2  2  0 )
num_ms=3
< 0  0  0 >:  -4.078107606394183904  2404.106879125048635615 
< 1  -1  0 >:  8.156215212788367808  -4808.213758250097271230 
< 2  -2  0 >:  -8.156215212788367808  4808.213758250097271230 
ctilde_basis_func: rank=3 ndens=2 mu0=0 mu=( 0  0  0 )
n=( 4  2  1 )
l=( 2  2  2 )
num_ms=10
< 0  0  0 >:  -0.991649659532959471  -381.241103362896637918 
< 0  1  -1 >:  0.991649659532959471  381.241103362896637918 
< 0  2  -2 >:  1.983299319065918942  762.482206725793275837 
< 1  -2  1 >:  -2.429035669460414493  -933.846172214756620633 
< 1  -1  0 >:  0.991649659532959471  381.241103362896637918 
< 1  0  -1 >:  0.991649659532959471  381.241103362896637918 
< 1  1  -2 >:  -2.429035669460414493  -933.846172214756620633 
< 2  -2  0 >:  1.983299319065918942  762.482206725793275837 
< 2  -1  -1 >:  -2.429035669460414493  -933.846172214756620633 
< 2  0  -2 >:  1.983299319065918942  762.482206725793275837 
ctilde_basis_func: rank=3 ndens=2 mu0=0 mu=( 0  0  0 )
n=( 4  2  2 )
l=( 0  0  0 )
num_ms=1
< 0  0  0 >:  -110.888105316416229584  -0.980999980915852610 
ctilde_basis_func: rank=3 ndens=2 mu0=0 mu=( 0  0  0 )
n=( 4  2  2 )
l=( 0  1  1 )
num_ms=2
< 0  0  0 >:  -13.302667538485561494  0.003118906296402703 
< 0  1  -1 >:  26.605335076971122987  -0.006237812592805407 
ctilde_basis_func: rank=3 ndens=2 mu0=0 mu=( 0  0  0 )
n=( 4  2  2 )
l=( 0  2  2 )
num_ms=3
< 0  0  0 >:  1.211698661489009732  -0.052975314937119135 
< 0  1  -1 >:  -2.423397322978019464  0.105950629874238270 
< 0  2  -2 >:  2.423397322978019464  -0.105950629874238270 
ctilde_basis_func: rank=3 ndens=2 mu0=0 mu=( 0  0  0 )
n=( 4  2  2 )
l=( 1  1  0 )
num_ms=2
< 0  0  0 >:  -38.253233811983598400  -387.893203110526371802 
< 1  -1  0 >:  76.506467623967196801  775.786406221052743604 
ctilde_basis_func: rank=3 ndens=2 mu0=0 mu=( 0  0  0 )
n=( 4  2  2 )
l=( 1  2  1 )
num_ms=5
< 0  0  0 >:  -1.987603599198113136  0.004912604183932884 
< 0  1  -1 >:  3.442630419117898466  -0.008508880044047196 
< 1  -2  1 >:  -4.868614628954705204  0.012033373558897324 
< 1  -1  0 >:  3.442630419117898466  -0.008508880044047196 
< 1  0  -1 >:  -1.987603599198113136  0.004912604183932884 
ctilde_basis_func: rank=3 ndens=2 mu0=0 mu=( 0  0  0 )
n=( 2  2  4 )
l=( 1  1  2 )
num_ms=4
< -1  -1  2 >:  1.419749183370934587  -776.794902169923375368 
< -1  0  1 >:  -2.007828550291301806  1098.553885830987155714 
< -1  1  0 >:  0.579610176998649584  -317.125190851914908308 
< 0  0  0 >:  0.579610176998649584  -317.125190851914908308 
ctilde_basis_func: rank=3 ndens=2 mu0=0 mu=( 0  0  0 )
n=( 4  2  2 )
l=( 2  2  0 )
num_ms=3
< 0  0  0 >:  -5.581543058416793102  -158.820899974207492278 
< 1  -1  0 >:  11.163086116833586203  317.641799948414984556 
< 2  -2  0 >:  -11.163086116833586203  -317.641799948414984556 
ctilde_basis_func: rank=3 ndens=2 mu0=0 mu=( 0  0  0 )
n=( 2  2  4 )
l=( 2  2  2 )
num_ms=7
< -2  0  2 >:  25.001642864397375376  0.027840829922389256 
< -2  1  1 >:  -30.620633874534799901  -0.034097913662731731 
< -2  2  0 >:  12.500821432198687688  0.013920414961194628 
< -1  -1  2 >:  -15.310316937267399950  -0.017048956831365866 
< -1  0  1 >:  12.500821432198687688  0.013920414961194628 
< -1  1  0 >:  6.250410716099343844  0.006960207480597314 
< 0  0  0 >:  -6.250410716099343844  -0.006960207480597314 
ctilde_basis_func: rank=3 ndens=2 mu0=0 mu=( 0  0  0 )
n=( 4  3  1 )
l=( 0  0  0 )
num_ms=1
< 0  0  0 >:  9.187936552978902327  -28.089137960549557249 
ctilde_basis_func: rank=3 ndens=2 mu0=0 mu=( 0  0  0 )
n=( 4  3  1 )
l=( 0  1  1 )
num_ms=2
< 0  0  0 >:  -3.151640042569952449  92.551386516980841179 
< 0  1  -1 >:  6.303280085139904898  -185.102773033961682358 
ctilde_basis_func: rank=3 ndens=2 mu0=0 mu=( 0  0  0 )
n=( 4  3  1 )
l=( 0  2  2 )
num_ms=3
< 0  0  0 >:  -1.152792155148776532  243.534353823982030463 
< 0  1  -1 >:  2.305584310297553063  -487.068707647964060925 
< 0  2  -2 >:  -2.305584310297553063  487.068707647964060925 
ctilde_basis_func: rank=3 ndens=2 mu0=0 mu=( 0  0  0 )
n=( 4  3  1 )
l=( 1  0  1 )
num_ms=2
< 0  0  0 >:  -4.305506601062340621  405.020858973436986616 
< 1  0  -1 >:  8.611013202124681243  -810.041717946873973233 
ctilde_basis_func: rank=3 ndens=2 mu0=0 mu=( 0  0  0 )
n=( 4  3  1 )
l=( 1  1  0 )
num_ms=2
< 0  0  0 >:  0.977658535179861898  5.518273530429298468 
< 1  -1  0 >:  -1.955317070359723797  -11.036547060858596936 
ctilde_basis_func: rank=3 ndens=2 mu0=0 mu=( 0  0  0 )
n=( 4  3  1 )
l=( 1  1  2 )
num_ms=5
< 0  0  0 >:  1.747343307980742333  208.496869709939943505 
< 0  1  -1 >:  -3.026487387688118424  -361.127171556684515963 
< 1  -1  0 >:  1.747343307980742333  208.496869709939943505 
< 1  0  -1 >:  -3.026487387688118424  -361.127171556684515963 
< 1  1  -2 >:  4.280099510019655717  510.710943756898586798 
ctilde_basis_func: rank=3 ndens=2 mu0=0 mu=( 0  0  0 )
n=( 4  3  1 )
l=( 1  2  1 )
num_ms=5
< 0  0  0 >:  -1.755227717189549619  115.816428401148954208 
< 0  1  -1 >:  3.040143585025436135  -200.599938341953077270 
< 1  -2  1 >:  -4.299412289504535245  283.691153414396751486 
< 1  -1  0 >:  3.040143585025436135  -200.599938341953077270 
< 1  0  -1 >:  -1.755227717189549619  115.816428401148954208 
ctilde_basis_func: rank=3 ndens=2 mu0=0 mu=( 0  0  0 )
n=( 4  3  1 )
l=( 2  0  2 )
num_ms=3
< 0  0  0 >:  -1.038874583938945495  -118.940498200670276674 
< 1  0  -1 >:  2.077749167877890990  237.880996401340553348 
< 2  0  -2 >:  -2.077749167877890990  -237.880996401340553348 
ctilde_basis_func: rank=3 ndens=2 mu0=0 mu=( 0  0  0 )
n=( 4  3  1 )
l=( 2  1  1 )
num_ms=5
< 0  0  0 >:  -1.633585757011766004  -114.641292093132491914 
< 0  1  -1 >:  -1.633585757011766004  -114.641292093132491914 
< 1  -1  0 >:  2.829453529665244549  198.564542550649662189 
< 1  0  -1 >:  2.829453529665244549  198.564542550649662189 
< 2  -1  -1 >:  -4.001451555757014056  -280.812669081538331284 
ctilde_basis_func: rank=3 ndens=2 mu0=0 mu=( 0  0  0 )
n=( 4  3  1 )
l=( 2  2  0 )
num_ms=3
< 0  0  0 >:  1.226198230929275379  101.001483570907652165 
< 1  -1  0 >:  -2.452396461858550758  -202.002967141815304331 
< 2  -2  0 >:  2.452396461858550758  202.002967141815304331 
ctilde_basis_func: rank=3 ndens=2 mu0=0 mu=( 0  0  0 )
n=( 4  3  1 )
l=( 2  2  2 )
num_ms=10
< 0  0  0 >:  0.751336616784665012  -0.005313427072517307 
< 0  1  -1 >:  -0.751336616784665012  0.005313427072517307 
< 0  2  -2 >:  -1.502673233569330025  0.010626854145034614 
< 1  -2  1 >:  1.840391336191452121  -0.013015185113157593 
< 1  -1  0 >:  -0.751336616784665012  0.005313427072517307 
< 1  0  -1 >:  -0.751336616784665012  0.005313427072517307 
< 1  1  -2 >:  1.840391336191452121  -0.013015185113157593 
< 2  -2  0 >:  -1.502673233569330025  0.010626854145034614 
< 2  -1  -1 >:  1.840391336191452121  -0.013015185113157593 
< 2  0  -2 >:  -1.502673233569330025  0.010626854145034614 
ctilde_basis_func: rank=3 ndens=2 mu0=0 mu=( 0  0  0 )
n=( 4  3  2 )
l=( 0  0  0 )
num_ms=1
< 0  0  0 >:  356.378456958043159375  -0.191929377295762094 
ctilde_basis_func: rank=3 ndens=2 mu0=0 mu=( 0  0  0 )
n=( 4  3  2 )
l=( 0  1  1 )
num_ms=2
< 0  0  0 >:  7.901543236385685454  0.002708978538624001 
< 0  1  -1 >:  -15.803086472771370907  -0.005417957077248002 
ctilde_basis_func: rank=3 ndens=2 mu0=0 mu=( 0  0  0 )
n=( 4  3  2 )
l=( 0  2  2 )
num_ms=3
< 0  0  0 >:  -1.699107470014395105  -0.001132003997450071 
< 0  1  -1 >:  3.398214940028790210  0.002264007994900142 
< 0  2  -2 >:  -3.398214940028790210  -0.002264007994900142 
ctilde_basis_func: rank=3 ndens=2 mu0=0 mu=( 0  0  0 )
n=( 4  3  2 )
l=( 1  0  1 )
num_ms=2
< 0  0  0 >:  1.334714276458363269  382.800963686728209723 
< 1  0  -1 >:  -2.669428552916726538  -765.601927373456419446 
ctilde_basis_func: rank=3 ndens=2 mu0=0 mu=( 0  0  0 )
n=( 4  3  2 )
l=( 1  1  0 )
num_ms=2
< 0  0  0 >:  22.595611446719523485  -2849.515028870190690213 
< 1  -1  0 >:  -45.191222893439046970  5699.030057740381380427 
ctilde_basis_func: rank=3 ndens=2 mu0=0 mu=( 0  0  0 )
n=( 4  3  2 )
l=( 1  1  2 )
num_ms=5
< 0  0  0 >:  0.974302122842710117  -372.654309337765027976 
< 0  1  -1 >:  -1.687540778685787668  645.456197432498242961 
< 1  -1  0 >:  0.974302122842710117  -372.654309337765027976 
< 1  0  -1 >:  -1.687540778685787668  645.456197432498242961 
< 1  1  -2 >:  2.386543056275094443  -912.812908326805086290 
ctilde_basis_func: rank=3 ndens=2 mu0=0 mu=( 0  0  0 )
n=( 4  3  2 )
l=( 1  2  1 )
num_ms=5
< 0  0  0 >:  -1.534394938738909975  467.016540463854710197 
< 0  1  -1 >:  2.657649992772326719  -808.896376058442683643 
< 1  -2  1 >:  -3.758484663819382732  1143.952225576297223597 
< 1  -1  0 >:  2.657649992772326719  -808.896376058442683643 
< 1  0  -1 >:  -1.534394938738909975  467.016540463854710197 
ctilde_basis_func: rank=3 ndens=2 mu0=0 mu=( 0  0  0 )
n=( 4  3  2 )
l=( 2  0  2 )
num_ms=3
< 0  0  0 >:  -0.122915480843246286  -0.056971611595101272 
< 1  0  -1 >:  0.245830961686492572  0.113943223190202544 
< 2  0  -2 >:  -0.245830961686492572  -0.113943223190202544 
ctilde_basis_func: rank=3 ndens=2 mu0=0 mu=( 0  0  0 )
n=( 4  3  2 )
l=( 2  1  1 )
num_ms=5
< 0  0  0 >:  -1.704434487439496992  -616.047057847341761772 
< 0  1  -1 >:  -1.704434487439496992  -616.047057847341761772 
< 1  -1  0 >:  2.952167130417826080  1067.024804044919164880 
< 1  0  -1 >:  2.952167130417826080  1067.024804044919164880 
< 2  -1  -1 >:  -4.174994794228951811  -1509.000949268818885685 
ctilde_basis_func: rank=3 ndens=2 mu0=0 mu=( 0  0  0 )
n=( 4  3  2 )
l=( 2  2  0 )
num_ms=3
< 0  0  0 >:  10.060570745042946683  0.018176266911390231 
< 1  -1  0 >:  -20.121141490085893366  -0.036352533822780461 
< 2  -2  0 >:  20.121141490085893366  0.036352533822780461 
ctilde_basis_func: rank=3 ndens=2 mu0=0 mu=( 0  0  0 )
n=( 4  3  2 )
l=( 2  2  2 )
num_ms=10
< 0  0  0 >:  3.245309865152081752  119.376162688273950607 
< 0  1  -1 >:  -3.245309865152081752  -119.376162688273950607 
< 0  2  -2 >:  -6.490619730304163504  -238.752325376547901215 
< 1  -2  1 >:  7.949353226843081544  292.410686037742948429 
< 1  -1  0 >:  -3.245309865152081752  -119.376162688273950607 
< 1  0  -1 >:  -3.245309865152081752  -119.376162688273950607 
< 1  1  -2 >:  7.949353226843081544  292.410686037742948429 
< 2  -2  0 >:  -6.490619730304163504  -238.752325376547901215 
< 2  -1  -1 >:  7.949353226843081544  292.410686037742948429 
< 2  0  -2 >:  -6.490619730304163504  -238.752325376547901215 
ctilde_basis_func: rank=3 ndens=2 mu0=0 mu=( 0  0  0 )
n=( 4  3  3 )
l=( 0  0  0 )
num_ms=1
< 0  0  0 >:  -151.782000084398504214  -584.635364437776615887 
ctilde_basis_func: rank=3 ndens=2 mu0=0 mu=( 0  0  0 )
n=( 4  3  3 )
l=( 0  1  1 )
num_ms=2
< 0  0  0 >:  -0.504318330832426831  -143.206473230436046151 
< 0  1  -1 >:  1.008636661664853662  286.412946460872092302 
ctilde_basis_func: rank=3 ndens=2 mu0=0 mu=( 0  0  0 )
n=( 4  3  3 )
l=( 0  2  2 )
num_ms=3
< 0  0  0 >:  0.498524804391528797  -79.918016953561775040 
< 0  1  -1 >:  -0.997049608783057595  159.836033907123550080 
< 0  2  -2 >:  0.997049608783057595  -159.836033907123550080 
ctilde_basis_func: rank=3 ndens=2 mu0=0 mu=( 0  0  0 )
n=( 4  3  3 )
l=( 1  1  0 )
num_ms=2
< 0  0  0 >:  1.929796477522538245  -3273.994008875840791006 
< 1  -1  0 >:  -3.859592955045076490  6547.988017751681582013 
ctilde_basis_func: rank=3 ndens=2 mu0=0 mu=( 0  0  0 )
n=( 4  3  3 )
l=( 1  2  1 )
num_ms=5
< 0  0  0 >:  0.626260053942041317  -155.417729863825741177 
< 0  1  -1 >:  -1.084714232178441318  269.191404521160961849 
< 1  -2  1 >:  1.534017578445870278  -380.694135148087980269 
< 1  -1  0 >:  -1.084714232178441318  269.191404521160961849 
< 1  0  -1 >:  0.626260053942041317  -155.417729863825741177 
ctilde_basis_func: rank=3 ndens=2 mu0=0 mu=( 0  0  0 )
n=( 3  3  4 )
l=( 1  1  2 )
num_ms=4
< -1  -1  2 >:  1.284021172501169872  504.582299428664782681 
< -1  0  1 >:  -1.815880156525357725  -713.587131185419707435 
< -1  1  0 >:  0.524199448593007600  205.994861140077432538 
< 0  0  0 >:  0.524199448593007600  205.994861140077432538 
ctilde_basis_func: rank=3 ndens=2 mu0=0 mu=( 0  0  0 )
n=( 4  3  3 )
l=( 2  2  0 )
num_ms=3
< 0  0  0 >:  -1.163928838698608637  -0.585753743755081047 
< 1  -1  0 >:  2.327857677397217273  1.171507487510162093 
< 2  -2  0 >:  -2.327857677397217273  -1.171507487510162093 
ctilde_basis_func: rank=3 ndens=2 mu0=0 mu=( 0  0  0 )
n=( 3  3  4 )
l=( 2  2  2 )
num_ms=7
< -2  0  2 >:  0.173851305563332253  -593.587035559391324568 
< -2  1  1 >:  -0.212923494873423186  726.992677525901285662 
< -2  2  0 >:  0.086925652781666127  -296.793517779695662284 
< -1  -1  2 >:  -0.106461747436711593  363.496338762950642831 
< -1  0  1 >:  0.086925652781666127  -296.793517779695662284 
< -1  1  0 >:  0.043462826390833063  -148.396758889847831142 
< 0  0  0 >:  -0.043462826390833063  148.396758889847831142 
ctilde_basis_func: rank=3 ndens=2 mu0=0 mu=( 0  0  0 )
n=( 4  4  1 )
l=( 0  0  0 )
num_ms=1
< 0  0  0 >:  -1.541934636705550199  501.402760359296451043 
ctilde_basis_func: rank=3 ndens=2 mu0=0 mu=( 0  0  0 )
n=( 4  4  1 )
l=( 1  0  1 )
num_ms=2
< 0  0  0 >:  1.227301033112043749  -164.588791263927987529 
< 1  0  -1 >:  -2.454602066224087498  329.177582527855975059 
ctilde_basis_func: rank=3 ndens=2 mu0=0 mu=( 0  0  0 )
n=( 4  4  1 )
l=( 1  1  0 )
num_ms=2
< 0  0  0 >:  0.029139700103897943  -2.352630346383102200 
< 1  -1  0 >:  -0.058279400207795887  4.705260692766204400 
ctilde_basis_func: rank=3 ndens=2 mu0=0 mu=( 0  0  0 )
n=( 1  4  4 )
l=( 2  1  1 )
num_ms=4
< -2  1  1 >:  -0.510949874381224078  -154.567520440768447543 
< -1  0  1 >:  0.722592242042756294  218.591483709715362238 
< 0  -1  1 >:  -0.208594412728860257  -63.101925981181921088 
< 0  0  0 >:  -0.208594412728860257  -63.101925981181921088 
ctilde_basis_func: rank=3 ndens=2 mu0=0 mu=( 0  0  0 )
n=( 4  4  1 )
l=( 2  0  2 )
num_ms=3
< 0  0  0 >:  0.300360605920082291  -9.166054083474126202 
< 1  0  -1 >:  -0.600721211840164582  18.332108166948252403 
< 2  0  -2 >:  0.600721211840164582  -18.332108166948252403 
ctilde_basis_func: rank=3 ndens=2 mu0=0 mu=( 0  0  0 )
n=( 4  4  1 )
l=( 2  1  1 )
num_ms=5
< 0  0  0 >:  0.356962930225041886  -6.009898911636486041 
< 0  1  -1 >:  0.356962930225041886  -6.009898911636486041 
< 1  -1  0 >:  -0.618277931568436578  10.409450263307292062 
< 1  0  -1 >:  -0.618277931568436578  10.409450263307292062 
< 2  -1  -1 >:  0.874377036140067454  -14.721185739217359512 
ctilde_basis_func: rank=3 ndens=2 mu0=0 mu=( 0  0  0 )
n=( 4  4  1 )
l=( 2  2  0 )
num_ms=3
< 0  0  0 >:  -0.057781336190232770  -132.146465557579745109 
< 1  -1  0 >:  0.115562672380465539  264.292931115159490219 
< 2  -2  0 >:  -0.115562672380465539  -264.292931115159490219 
ctilde_basis_func: rank=3 ndens=2 mu0=0 mu=( 0  0  0 )
n=( 1  4  4 )
l=( 2  2  2 )
num_ms=8
< -2  0  2 >:  0.341994546919248577  -38.806165825740890796 
< -2  1  1 >:  -0.209428033691619914  23.763826286723851666 
< -1  -1  2 >:  -0.209428033691619914  23.763826286723851666 
< -1  0  1 >:  0.170997273459624288  -19.403082912870445398 
< 0  -2  2 >:  0.170997273459624288  -19.403082912870445398 
< 0  -1  1 >:  0.085498636729812144  -9.701541456435222699 
< 0  0  0 >:  -0.085498636729812144  9.701541456435222699 
< 1  -2  1 >:  -0.209428033691619914  23.763826286723851666 
ctilde_basis_func: rank=3 ndens=2 mu0=0 mu=( 0  0  0 )
n=( 4  4  2 )
l=( 0  0  0 )
num_ms=1
< 0  0  0 >:  -67.938886593146250448  4748.379680303612985881 
ctilde_basis_func: rank=3 ndens=2 mu0=0 mu=( 0  0  0 )
n=( 4  4  2 )
l=( 1  0  1 )
num_ms=2
< 0  0  0 >:  -1.103992919892640590  -647.068971931460851010 
< 1  0  -1 >:  2.207985839785281179  1294.137943862921702021 
ctilde_basis_func: rank=3 ndens=2 mu0=0 mu=( 0  0  0 )
n=( 4  4  2 )
l=( 1  1  0 )
num_ms=2
< 0  0  0 >:  -5.594272374788733515  3242.926668247924226307 
< 1  -1  0 >:  11.188544749577467030  -6485.853336495848452614 
ctilde_basis_func: rank=3 ndens=2 mu0=0 mu=( 0  0  0 )
n=( 2  4  4 )
l=( 2  1  1 )
num_ms=4
< -2  1  1 >:  -1.031791131160523678  564.094866262040454785 
< -1  0  1 >:  1.459173011223489747  -797.750610332814858339 
< 0  -1  1 >:  -0.421226965412059229  230.290764810919426964 
< 0  0  0 >:  -0.421226965412059229  230.290764810919426964 
ctilde_basis_func: rank=3 ndens=2 mu0=0 mu=( 0  0  0 )
n=( 4  4  2 )
l=( 2  0  2 )
num_ms=3
< 0  0  0 >:  0.273406640978898718  143.686459959679694975 
< 1  0  -1 >:  -0.546813281957797437  -287.372919919359389951 
< 2  0  -2 >:  0.546813281957797437  287.372919919359389951 
ctilde_basis_func: rank=3 ndens=2 mu0=0 mu=( 0  0  0 )
n=( 4  4  2 )
l=( 2  1  1 )
num_ms=5
< 0  0  0 >:  1.316482778456946390  0.003084454243660564 
< 0  1  -1 >:  1.316482778456946390  0.003084454243660564 
< 1  -1  0 >:  -2.280215059576873315  -0.005342431463641530 
< 1  0  -1 >:  -2.280215059576873315  -0.005342431463641530 
< 2  -1  -1 >:  3.224711062380989368  0.007555339031930597 
ctilde_basis_func: rank=3 ndens=2 mu0=0 mu=( 0  0  0 )
n=( 4  4  2 )
l=( 2  2  0 )
num_ms=3
< 0  0  0 >:  -4.095891741518857820  1032.662089503788592992 
< 1  -1  0 >:  8.191783483037715641  -2065.324179007577185985 
< 2  -2  0 >:  -8.191783483037715641  2065.324179007577185985 
ctilde_basis_func: rank=3 ndens=2 mu0=0 mu=( 0  0  0 )
n=( 2  4  4 )
l=( 2  2  2 )
num_ms=8
< -2  0  2 >:  5.808234239327767945  -956.839428766464038745 
< -2  1  1 >:  -3.556802548228854999  585.942091563492112982 
< -1  -1  2 >:  -3.556802548228854999  585.942091563492112982 
< -1  0  1 >:  2.904117119663883972  -478.419714383232019372 
< 0  -2  2 >:  2.904117119663883972  -478.419714383232019372 
< 0  -1  1 >:  1.452058559831941986  -239.209857191616009686 
< 0  0  0 >:  -1.452058559831941986  239.209857191616009686 
< 1  -2  1 >:  -3.556802548228854999  585.942091563492112982 
ctilde_basis_func: rank=3 ndens=2 mu0=0 mu=( 0  0  0 )
n=( 4  4  3 )
l=( 0  0  0 )
num_ms=1
< 0  0  0 >:  48.840166012855888766  282.569206668308311237 
ctilde_basis_func: rank=3 ndens=2 mu0=0 mu=( 0  0  0 )
n=( 4  4  3 )
l=( 1  0  1 )
num_ms=2
< 0  0  0 >:  0.030676251293461954  164.076259783725902253 
< 1  0  -1 >:  -0.061352502586923909  -328.152519567451804505 
ctilde_basis_func: rank=3 ndens=2 mu0=0 mu=( 0  0  0 )
n=( 4  4  3 )
l=( 1  1  0 )
num_ms=2
< 0  0  0 >:  0.452095461599584580  -0.591709942389349375 
< 1  -1  0 >:  -0.904190923199169161  1.183419884778698750 
ctilde_basis_func: rank=3 ndens=2 mu0=0 mu=( 0  0  0 )
n=( 3  4  4 )
l=( 2  1  1 )
num_ms=4
< -2  1  1 >:  0.115813484304938860  -87.413801768172788798 
< -1  0  1 >:  -0.163785000209728138  123.621783999143204369 
< 0  -1  1 >:  0.047280656980154719  -35.686535134803548885 
< 0  0  0 >:  0.047280656980154719  -35.686535134803548885 
ctilde_basis_func: rank=3 ndens=2 mu0=0 mu=( 0  0  0 )
n=( 4  4  3 )
l=( 2  0  2 )
num_ms=3
< 0  0  0 >:  -0.077917018185048065  -31.560804308348465952 
< 1  0  -1 >:  0.155834036370096130  63.121608616696931904 
< 2  0  -2 >:  -0.155834036370096130  -63.121608616696931904 
ctilde_basis_func: rank=3 ndens=2 mu0=0 mu=( 0  0  0 )
n=( 4  4  3 )
l=( 2  1  1 )
num_ms=5
< 0  0  0 >:  -0.273551609163330045  -29.104490265258089465 
< 0  1  -1 >:  -0.273551609163330045  -29.104490265258089465 
< 1  -1  0 >:  0.473805285563111633  50.410455867820800790 
< 1  0  -1 >:  0.473805285563111633  50.410455867820800790 
< 2  -1  -1 >:  -0.670061860767409812  -71.291150373682555141 
ctilde_basis_func: rank=3 ndens=2 mu0=0 mu=( 0  0  0 )
n=( 4  4  3 )
l=( 2  2  0 )
num_ms=3
< 0  0  0 >:  0.963012375151561351  -455.053252688120380753 
< 1  -1  0 >:  -1.926024750303122701  910.106505376240761507 
< 2  -2  0 >:  1.926024750303122701  -910.106505376240761507 
ctilde_basis_func: rank=3 ndens=2 mu0=0 mu=( 0  0  0 )
n=( 3  4  4 )
l=( 2  2  2 )
num_ms=8
< -2  0  2 >:  -1.698819722253252396  814.239340597802993216 
< -2  1  1 >:  1.040310371124277156  -498.617728241214251739 
< -1  -1  2 >:  1.040310371124277156  -498.617728241214251739 
< -1  0  1 >:  -0.849409861126626198  407.119670298901496608 
< 0  -2  2 >:  -0.849409861126626198  407.119670298901496608 
< 0  -1  1 >:  -0.424704930563313099  203.559835149450748304 
< 0  0  0 >:  0.424704930563313099  -203.559835149450748304 
< 1  -2  1 >:  1.040310371124277156  -498.617728241214251739 
ctilde_basis_func: rank=3 ndens=2 mu0=0 mu=( 0  0  0 )
n=( 4  4  4 )
l=( 0  0  0 )
num_ms=1
< 0  0  0 >:  -4.773716755284087121  -499.167106120257642488 
ctilde_basis_func: rank=3 ndens=2 mu0=0 mu=( 0  0  0 )
n=( 4  4  4 )
l=( 1  1  0 )
num_ms=2
< 0  0  0 >:  -0.123009061910717477  134.223438397604894590 
< 1  -1  0 >:  0.246018123821434953  -268.446876795209789179 
ctilde_basis_func: rank=3 ndens=2 mu0=0 mu=( 0  0  0 )
n=( 4  4  4 )
l=( 1  1  2 )
num_ms=4
< -1  -1  2 >:  -0.075844860455342694  -8.286980839909725560 
< -1  0  1 >:  0.107260830292240469  11.719560694926315136 
< -1  1  0 >:  -0.030963534621363902  -3.383145760999933138 
< 0  0  0 >:  -0.030963534621363902  -3.383145760999933138 
ctilde_basis_func: rank=3 ndens=2 mu0=0 mu=( 0  0  0 )
n=( 4  4  4 )
l=( 2  2  0 )
num_ms=3
< 0  0  0 >:  -0.060974724492883402  55.803662444032667622 
< 1  -1  0 >:  0.121949448985766803  -111.607324888065335244 
< 2  -2  0 >:  -0.121949448985766803  111.607324888065335244 
ctilde_basis_func: rank=3 ndens=2 mu0=0 mu=( 0  0  0 )
n=( 4  4  4 )
l=( 2  2  2 )
num_ms=5
< -2  0  2 >:  0.626760474536790957  -296.550627823898480528 
< -2  1  1 >:  -0.511747784519928861  242.132573690183676263 
< -1  -1  2 >:  -0.255873892259964431  121.066286845091838131 
< -1  0  1 >:  0.313380237268395478  -148.275313911949240264 
< 0  0  0 >:  -0.104460079089465155  49.425104637316415790 
